svm_type c_svc
kernel_type rbf
gamma 1
nr_class 2
total_sv 669
rho -12.5836
label -1 1
probA -1.91908
probB -0.0509323
nr_sv 345 324
SV
505.3981041341088 1:0.0150369 4:0.857386 5:0.00505655 6:0.0916248 7:0.28631 8:0.291275 9:0.124341 10:0.102879 11:0.0555217 12:0.487594 
512 1:0.306417 4:0.626514 5:0.0027826 6:0.0603753 7:0.263123 8:0.109735 9:0.182171 10:0.0678272 11:0.07321 12:0.571192 
512 1:0.0476273 4:0.134416 5:0.00478727 6:0.133311 7:0.257232 8:0.329452 9:0.125676 10:0.112649 11:0.09353 12:0.409438 
311.9371224841296 1:0.0602157 4:0.831123 5:0.00329125 6:0.237531 7:0.244398 8:0.0616915 9:0.102414 10:0.305054 11:0.411578 12:0.417339 
512 1:0.308585 4:0.29106 5:0.00140626 6:0.08205 7:0.259065 8:0.298196 9:0.115509 10:0.245755 11:0.0663144 12:0.46575 
113.3608259369154 1:0.0199273 4:0.569506 5:0.0032314 6:0.0711005 7:0.36807 9:0.142953 11:0.114899 12:0.650238 
397.1236915545778 1:0.0014683 4:0.271907 5:0.00368021 6:0.0951043 7:0.246235 8:0.272527 9:0.174937 10:0.1123 11:0.121212 12:0.464083 
512 1:0.130043 4:0.123343 5:0.0030818 6:0.05209 7:0.13897 8:0.368071 9:0.168448 10:0.0737855 11:0.0398206 12:0.357934 
512 1:0.0270472 4:0.756071 5:0.00487703 6:0.167534 7:0.309305 8:0.0760736 9:0.12629 10:0.188085 11:0.152259 12:0.604278 
512 1:0.0737619 4:0.301302 5:0.00320148 6:0.0635455 7:0.197217 8:0.230698 9:0.160852 10:0.028519 11:0.0307822 12:0.517019 
512 1:0.106509 4:0.12194 5:0.00314164 6:0.10376 7:0.223423 8:0.328221 9:0.189106 10:0.107404 11:0.103047 12:0.412792 
512 1:0.133524 4:0.113639 5:0.00218419 6:0.138239 7:0.329889 8:0.205809 9:0.196457 10:0.0954084 11:0.20596 12:0.566728 
512 1:0.131955 4:0.561787 5:0.0027826 6:0.0406188 7:0.277015 8:0.0984127 9:0.0326751 10:0.0608292 11:0.0656566 12:0.666089 
512 1:0.482964 4:0.286092 5:0.00158578 6:0.0478984 7:0.19958 8:0.261053 9:0.158904 10:0.0537858 12:0.28322 
512 1:0.17037 4:0.185582 5:0.00128658 6:0.143244 7:0.368836 8:0.242797 9:0.115162 10:0.214391 11:0.046281 12:0.578212 
43.10296272428873 1:0.317591 4:0.292735 5:0.00119682 6:0.0802523 7:0.194671 8:0.175059 9:0.30999 11:0.155722 12:0.349252 
148.3913994580666 1:0.258275 4:0.455821 5:0.00236371 6:0.103208 7:0.195499 8:0.0937618 9:0.0933926 10:0.173863 12:0.244104 
229.1034077710986 1:0.0250428 4:0.259791 5:0.00266292 6:0.0788942 7:0.164236 8:0.214822 9:0.142651 10:0.0885214 11:0.0955464 12:0.404297 
512 1:0.196451 4:0.101304 5:0.00302196 6:0.0346261 7:0.216547 8:0.3769 9:0.183536 10:0.0207078 11:0.0558779 12:0.414943 
512 1:0.291779 4:0.553729 5:0.0106217 6:0.361735 7:0.491065 8:0.141567 9:0.0683684 10:0.334103 11:0.240411 12:0.436171 
512 1:0.281417 4:0.486007 5:0.00251331 6:0.0517992 7:0.264925 8:0.282353 9:0.140621 10:0.116349 11:0.125582 12:0.477805 
43.22360727094419 1:0.638397 4:0.676211 5:0.00481719 6:0.0379334 7:0.208274 8:0.103333 9:0.0457451 10:0.0425804 11:0.137879 12:0.358877 
3.407989349369157 1:0.0905465 4:0.428008 5:0.0013165 6:0.106836 7:0.340407 8:0.310972 9:0.103249 10:0.192213 12:0.646875 
512 1:0.598317 4:0.211225 5:0.00200467 6:0.0494959 7:0.214118 8:0.333747 9:0.161955 10:0.0952109 12:0.441507 
502.511878664326 1:0.807931 4:0.250525 5:0.000777931 6:0.0413142 7:0.282051 8:0.300606 9:0.174663 12:0.390861 
512 1:0.437731 4:0.459746 5:0.00281252 6:0.0548756 7:0.182895 8:0.318971 9:0.145619 10:0.0492892 11:0.106402 12:0.373796 
512 1:0.0225305 4:0.232776 5:0.00493687 6:0.0706884 7:0.255265 8:0.174894 9:0.166463 10:0.115309 11:0.0777878 12:0.471173 
23.72219582520909 1:0.205504 4:0.400789 5:0.000807851 6:0.667849 7:0.604082 8:0.115888 9:0.0384772 10:0.859567 11:0.309261 12:0.54157 
512 1:0.481686 4:0.734413 5:0.00442822 6:0.0559534 7:0.127154 8:0.162623 9:0.134985 10:0.100518 11:0.0542474 12:0.275266 
207.3364264887596 1:0.31061 4:0.164722 5:0.002633 6:0.348029 7:0.45607 8:0.12323 9:0.0818297 10:0.380843 11:0.205534 12:0.461767 
512 1:0.107762 4:0.689319 5:0.00643289 6:0.029034 7:0.186835 8:0.184485 9:0.253761 10:0.0977404 11:0.0351657 12:0.446357 
354.3280945961158 1:0.298548 4:0.241518 5:0.00218419 6:0.244992 7:0.28665 8:0.134783 9:0.196903 10:0.299914 11:0.107905 12:0.40737 
275.2439365752167 1:0.036404 4:0.700619 5:0.00167554 6:0.138411 7:0.399382 9:0.133888 10:0.124626 12:0.7333 
512 1:0.0242178 4:0.866565 5:0.00332117 6:0.175321 7:0.332323 8:0.19126 9:0.148172 10:0.157624 11:0.170133 12:0.43125 
512 1:0.127437 4:0.135535 5:0.00215427 6:0.204741 7:0.442209 8:0.170287 9:0.149057 10:0.191373 11:0.123936 12:0.568992 
43.62543638259555 1:0.0601365 4:0.28776 5:0.00134642 6:0.338351 7:0.502137 8:0.0512397 9:0.119088 10:0.126686 11:0.615327 12:0.600193 
512 1:0.436111 4:0.482476 5:0.00284244 6:0.113958 7:0.284877 8:0.248414 9:0.096225 10:0.153545 11:0.331462 12:0.539063 
512 1:0.144261 4:0.467344 5:0.00236371 6:0.039676 7:0.440933 8:0.192248 9:0.111703 10:0.0594145 11:0.0641297 12:0.550532 
512 1:0.141584 4:0.535222 5:0.00212435 6:0.167998 7:0.34388 8:0.244335 9:0.162249 10:0.302048 11:0.0815047 12:0.492706 
512 1:0.466037 4:0.139155 5:0.00137634 6:0.188993 7:0.291249 8:0.171542 9:0.203412 10:0.212061 11:0.0653971 12:0.459773 
512 1:0.423466 4:0.223397 5:0.000807851 6:0.0890299 7:0.405034 8:0.32376 9:0.193491 11:0.0863992 12:0.539063 
512 1:0.170483 4:0.294056 5:0.00314164 6:0.0315966 7:0.191339 8:0.229417 9:0.198045 10:0.0567214 11:0.0612228 12:0.448388 
512 1:0.138968 4:0.0794476 5:0.00233379 6:0.183399 7:0.318403 8:0.307121 9:0.155788 10:0.137101 11:0.0569159 12:0.433771 
512 1:0.0963332 4:0.0963041 5:0.00221411 6:0.119172 7:0.232174 8:0.259459 9:0.161524 10:0.106915 11:0.129825 12:0.448162 
512 1:0.157621 4:0.18109 5:0.00412902 6:0.401149 7:0.452995 8:0.217258 9:0.104595 10:0.228289 11:0.260901 12:0.464481 
512 1:0.166838 4:0.295006 5:0.0016157 6:0.109109 7:0.312277 8:0.308348 9:0.219381 10:0.217818 11:0.058776 12:0.573471 
512 1:0.241061 4:0.094491 5:0.0017653 6:0.196815 7:0.416433 8:0.211627 9:0.166878 10:0.114456 11:0.141188 12:0.534465 
512 1:0.0290681 4:0.721553 5:0.0030818 6:0.220057 7:0.285951 8:0.285714 9:0.0948631 10:0.282561 11:0.304985 12:0.401509 
512 1:0.251015 4:0.164143 5:0.00104721 6:0.0308923 7:0.163785 8:0.26184 9:0.211131 10:0.0462412 11:0.0998217 12:0.487105 
512 1:0.335509 4:0.690277 5:0.00311172 6:0.417102 7:0.42903 8:0.108297 9:0.125849 10:0.200816 11:0.289004 12:0.535539 
512 1:0.250117 4:0.0837295 5:0.00155586 6:0.0916064 7:0.241218 8:0.279249 9:0.158943 10:0.164385 11:0.106459 12:0.40213 
512 1:0.333361 4:0.655422 5:0.00577464 6:0.522416 7:0.657274 8:0.0836895 9:0.0277867 10:0.241401 11:0.223336 12:0.348876 
512 1:0.15684 4:0.145094 5:0.00347077 6:0.0457358 7:0.201128 8:0.197072 9:0.196296 10:0.064111 11:0.0276796 12:0.467849 
245.1006174797561 1:0.0625047 4:0.690071 5:0.00388965 6:0.119537 7:0.425629 9:0.144205 10:0.107383 11:0.347715 12:0.56545 
2.605448246975593 1:0.185123 4:0.402642 5:0.00203459 6:0.237597 7:0.33006 8:0.191876 9:0.127414 10:0.118599 11:0.384034 12:0.574445 
512 1:0.18926 4:0.109293 5:0.0027826 6:0.169725 7:0.281273 8:0.391013 9:0.188245 10:0.108759 11:0.143477 12:0.461325 
512 1:0.232805 4:0.175586 5:0.00197475 6:0.089731 7:0.194703 8:0.456042 9:0.230728 10:0.0268458 11:0.144881 12:0.362205 
512 1:0.0869151 4:0.13026 5:0.00230387 6:0.076869 7:0.191947 8:0.278965 9:0.143564 10:0.0689716 11:0.111668 12:0.432704 
288.210546332264 1:0.164239 4:0.390691 5:0.00284244 6:0.101639 7:0.272891 8:0.234912 9:0.0668534 10:0.165943 11:0.044778 12:0.428336 
414.2289737977747 1:0.00915157 4:0.752856 5:0.00607384 6:0.377531 7:0.40656 8:0.152334 9:0.0708093 10:0.338969 11:0.447174 12:0.507975 
161.5977169758632 1:0.0262984 4:0.928555 5:0.0029322 7:0.128871 8:0.0772586 9:0.205212 12:0.28125 
512 1:0.381356 4:0.740929 5:0.00804859 6:0.199817 7:0.311958 8:0.226691 9:0.143006 10:0.112095 11:0.181486 12:0.45488 
41.54362424005984 1:0.169396 4:0.461408 5:0.00251331 6:0.0614883 7:0.298144 8:0.134054 9:0.192871 10:0.165718 11:0.119247 12:0.477012 
512 1:0.00537238 4:0.580383 5:0.00490695 6:0.335877 7:0.345133 8:0.232319 9:0.0867764 10:0.287193 11:0.193741 12:0.416118 
512 1:0.0973479 4:0.325406 5:0.00281252 6:0.155752 7:0.288912 8:0.141391 9:0.140834 10:0.0699154 11:0.150928 12:0.471526 
129.1564085339984 1:0.126667 4:0.992005 5:0.00242355 6:0.08205 7:0.332269 9:0.0661375 11:0.132895 12:0.439875 
512 1:0.447497 4:0.368838 5:0.00164562 6:0.43106 7:0.540752 8:0.162092 9:0.125575 10:0.133586 11:0.144187 12:0.50625 
512 1:0.148709 4:0.0663138 5:0.00143618 6:0.158275 7:0.277827 8:0.25271 9:0.205948 10:0.0852003 11:0.168597 12:0.43125 
512 1:0.452341 4:0.476687 5:0.00248339 6:0.436983 7:0.438215 8:0.233522 9:0.201588 10:0.288681 11:0.186954 12:0.510691 
512 1:0.314352 4:0.253 5:0.00400934 6:0.218492 7:0.288535 8:0.124389 9:0.201336 10:0.15377 11:0.207467 12:0.571487 
270.9985886359057 1:0.390931 4:0.981246 5:0.0030818 6:0.555547 7:0.680813 8:0.0777429 9:0.0516245 10:0.480531 11:0.414933 12:0.384082 
448.2608915600465 1:0.0441264 4:0.504379 5:0.00329125 6:0.10313 7:0.296821 8:0.224773 9:0.223888 10:0.185244 11:0.0999725 12:0.536623 
512 1:0.331817 4:0.0291717 5:0.00101729 6:0.252329 7:0.346074 8:0.230732 9:0.160629 10:0.119614 11:0.198625 12:0.475501 
512 1:0.449317 4:0.522892 5:0.0029322 6:0.059873 7:0.190508 8:0.0870175 9:0.130012 10:0.161357 11:0.0580542 12:0.498468 
512 1:0.0221959 4:0.958767 5:0.00203459 6:0.0313647 7:0.214463 9:0.113836 10:0.141281 12:0.504444 
512 1:0.322241 4:0.443988 5:0.00314164 6:0.285292 7:0.381699 8:0.103621 9:0.172022 10:0.256194 11:0.276526 12:0.60279 
512 1:0.127191 4:0.340579 5:0.00320148 6:0.279814 7:0.429101 8:0.0781513 9:0.129739 10:0.161018 11:0.243316 12:0.631263 
512 1:0.325443 4:0.457022 5:0.00149602 6:0.141187 7:0.244778 8:0.146746 9:0.219252 10:0.181408 11:0.0979021 12:0.534292 
512 1:0.00795376 4:0.233915 5:0.00816827 6:0.164665 7:0.372213 8:0.13513 9:0.13696 10:0.193425 11:0.161326 12:0.526699 
512 1:0.154806 4:0.297941 5:0.00326132 6:0.0555393 7:0.186845 8:0.380849 9:0.193394 10:0.0276946 11:0.0896773 12:0.396999 
390.7757014795553 1:0.368327 4:0.917436 5:0.00505655 6:0.0612679 7:0.222805 8:0.31167 9:0.133047 10:0.0550411 11:0.118818 12:0.359375 
512 1:0.010998 4:0.281681 5:0.00239363 6:0.0553324 7:0.149622 8:0.373148 9:0.209665 10:0.141935 11:0.114899 12:0.493569 
167.3302061342987 1:0.0274722 4:0.0330999 5:0.000179522 6:0.0207197 7:0.125546 8:0.263429 9:0.187423 12:0.294034 
512 1:0.177749 4:0.486847 5:0.00376997 6:0.182914 7:0.356162 8:0.189796 9:0.15754 10:0.195522 11:0.168831 12:0.420263 
512 1:0.191031 4:0.164243 5:0.00152594 6:0.129416 7:0.397346 8:0.182737 9:0.17335 10:0.0645429 11:0.174163 12:0.652997 
512 1:0.0975695 4:0.65648 5:0.0030818 6:0.343305 7:0.552868 9:0.120836 10:0.321362 11:0.138746 12:0.405988 
135.6162601799432 1:0.220131 4:0.137137 5:0.000568488 6:0.0304566 7:0.161592 8:0.276786 9:0.257316 11:0.147727 12:0.388989 
512 1:0.208887 4:0.134877 5:0.0027826 6:0.089271 7:0.295196 8:0.251959 9:0.119508 10:0.118657 11:0.128073 12:0.491099 
438.5899900311013 1:0.363917 4:0.247503 5:0.00158578 6:0.0518778 7:0.38507 8:0.18845 9:0.100111 10:0.0931851 12:0.588961 
512 1:0.197171 4:0.278573 5:0.00272276 6:0.13096 7:0.286985 8:0.150151 9:0.124633 10:0.185618 11:0.133566 12:0.456464 
512 1:0.0975785 4:0.721406 5:0.00365029 6:0.186235 7:0.332634 8:0.193372 9:0.112356 10:0.179286 11:0.322523 12:0.440479 
512 1:0.0319458 4:0.367547 5:0.0118186 6:0.352383 7:0.489794 8:0.0924224 9:0.0895012 10:0.218985 11:0.236364 12:0.471952 
512 1:0.298054 4:0.0805636 5:0.00191491 6:0.115547 7:0.264448 8:0.167709 9:0.19837 10:0.129577 11:0.153846 12:0.535646 
27.10777576337951 1:0.00186151 4:0.322494 5:0.00119682 6:0.388695 7:0.361698 8:0.192746 9:0.0426638 10:0.635397 11:0.428639 12:0.401163 
512 1:0.330314 4:0.0798192 5:0.000688169 6:0.151272 7:0.292046 8:0.247176 9:0.127661 10:0.135805 11:0.183228 12:0.500899 
512 1:0.186092 4:0.0941518 5:0.00140626 6:0.108532 7:0.304576 8:0.213369 9:0.136236 10:0.101449 11:0.0657 12:0.397879 
12.5932446580894 1:0.00175567 4:0.851548 5:0.00493687 6:0.372743 7:0.529448 9:0.210771 10:0.418538 11:0.282346 12:0.484881 
512 1:0.245905 4:0.074939 5:0.000987374 6:0.0559201 7:0.180829 8:0.350595 9:0.21443 10:0.136866 11:0.0492424 12:0.46171 
512 1:0.176378 4:0.24142 5:0.00164562 6:0.117214 7:0.429062 8:0.106438 9:0.247377 10:0.175439 11:0.142021 12:0.609911 
512 1:0.233346 4:0.0994098 5:0.00326132 6:0.0778184 7:0.262525 8:0.412062 9:0.162149 10:0.0754656 11:0.0610909 12:0.52331 
512 1:0.204916 4:0.604108 5:0.00394949 6:0.195946 7:0.406177 8:0.112387 9:0.199012 10:0.138933 11:0.199945 12:0.673218 
512 1:0.094724 4:0.517698 5:0.0087966 6:0.172038 7:0.281556 8:0.174239 9:0.101239 10:0.125647 11:0.193741 12:0.719171 
512 1:0.0848407 4:0.461448 5:0.00245347 6:0.277026 7:0.352998 8:0.183026 9:0.106345 10:0.282822 11:0.18316 12:0.488432 
512 1:0.273118 4:0.73497 5:0.00305188 6:0.355615 7:0.53915 8:0.0587678 9:0.0975606 10:0.217947 11:0.235243 12:0.474069 
512 1:0.0999223 4:0.587723 5:0.00317156 6:0.11209 7:0.386877 8:0.181022 9:0.150258 11:0.181155 12:0.600922 
512 1:0.316517 4:0.0664537 5:0.000388965 6:0.0952593 7:0.272577 8:0.230698 9:0.217023 10:0.0475316 11:0.153911 12:0.570772 
512 1:0.24699 4:0.242133 5:0.00233379 6:0.0837245 7:0.205993 8:0.303984 9:0.10934 10:0.125262 11:0.0338007 12:0.495057 
512 1:0.289035 4:0.411482 5:0.00589432 6:0.421717 7:0.502033 8:0.0859917 9:0.0799429 10:0.403953 11:0.252427 12:0.479665 
512 1:0.0911757 4:0.341123 5:0.00188499 6:0.0964727 7:0.429389 8:0.175265 9:0.130931 10:0.108332 11:0.0584645 12:0.593254 
512 1:0.191586 4:0.388575 5:0.00284244 6:0.0827117 7:0.257503 8:0.233647 9:0.166234 10:0.0825246 11:0.0445369 12:0.512979 
512 1:0.247823 4:0.371561 5:0.00200467 6:0.0741863 7:0.224823 8:0.17971 9:0.119335 10:0.111079 11:0.0599473 12:0.514693 
512 1:0.147636 4:0.343275 5:0.00335109 6:0.0622219 7:0.193649 8:0.225911 9:0.14168 10:0.124121 11:0.0669856 12:0.405523 
512 1:0.539674 4:0.0951013 5:0.00200467 6:0.0421468 7:0.210959 8:0.329412 9:0.140621 10:0.0436308 11:0.0313955 12:0.475418 
512 1:0.206774 4:0.350875 5:0.0070313 6:0.105297 7:0.298126 8:0.147913 9:0.13096 10:0.1219 11:0.0822339 12:0.530225 
512 1:0.163584 4:0.270986 5:0.0032314 6:0.204104 7:0.326134 8:0.123485 9:0.109333 10:0.22898 11:0.192229 12:0.429104 
337.4345169087734 1:0.312735 4:0.71974 5:0.00379989 6:0.102052 7:0.270629 8:0.278131 9:0.0923452 10:0.0573045 12:0.458605 
117.3501042222125 1:0.179581 4:0.834828 5:0.0046975 6:0.815702 7:0.826987 8:0.217926 9:0.0289424 10:0.161641 11:0.46525 12:0.465296 
512 1:0.13273 4:0.39448 5:0.00759978 6:0.275478 7:0.427571 8:0.128165 9:0.127661 10:0.0633755 11:0.27362 12:0.648212 
512 1:0.144617 4:0.314144 5:0.00783915 6:0.0573891 7:0.136458 8:0.376809 9:0.164616 10:0.098066 11:0.0396932 12:0.354204 
239.5441191878999 1:0.791242 4:0.182556 5:0.0277362 6:0.385922 7:0.439019 8:0.0346254 9:0.131934 10:0.279246 11:0.842618 12:0.509174 
512 1:0.00181934 4:0.896126 5:0.00374005 6:0.145136 7:0.207816 8:0.175887 9:0.038932 10:0.217432 11:0.0782291 12:0.350899 
512 1:0.448869 4:0.615416 5:0.00391957 6:0.497465 7:0.561187 8:0.0384496 9:0.0765964 10:0.380253 11:0.153911 12:0.380515 
512 1:0.293197 4:0.296437 5:0.00212435 6:0.102749 7:0.360763 8:0.0339261 9:0.27034 10:0.125819 11:0.135804 12:0.5479 
117.5428381900446 1:0.209679 4:0.193753 5:0.000927533 6:0.176715 7:0.288419 8:0.395219 9:0.131221 10:0.122143 11:0.131836 12:0.282927 
512 1:0.304273 4:0.165871 5:0.000508647 6:0.202893 7:0.52325 8:0.0738095 9:0.171544 10:0.273731 11:0.295455 12:0.595048 
512 1:0.520299 4:0.078761 5:0.000299204 6:0.093451 7:0.22431 8:0.283105 9:0.244392 10:0.13999 11:0.07555 12:0.442056 
512 1:0.0131611 4:0.602999 5:0.00496679 6:0.172374 7:0.310754 8:0.268269 9:0.108864 10:0.221091 11:0.238636 12:0.574655 
512 1:0.133668 4:0.52647 5:0.00604392 6:0.112187 7:0.353072 8:0.128608 9:0.277554 10:0.0794932 11:0.143003 12:0.5642 
512 1:0.0610225 4:0.574725 5:0.00499671 6:0.202247 7:0.418151 8:0.084738 9:0.0937826 10:0.104754 11:0.226134 12:0.397398 
494.1291537295783 1:0.386245 4:0.15199 5:0.000807851 6:0.0853164 7:0.19391 8:0.531429 9:0.132334 10:0.164239 12:0.368984 
512 1:0.187274 4:0.114549 5:0.00296212 6:0.161787 7:0.278914 8:0.394567 9:0.194909 10:0.0951739 11:0.128409 12:0.464204 
195.3997333292052 1:0.12539 4:0.911344 5:0.00415894 6:0.295356 7:0.4477 8:0.0536797 9:0.124759 10:0.464514 11:0.143251 12:0.461056 
512 1:0.23968 4:0.682113 5:0.00338101 6:0.244196 7:0.236445 8:0.147913 9:0.18007 10:0.18285 11:0.394723 12:0.397879 
143.8013791493522 1:0.00757261 4:0.895428 5:0.00311172 6:0.0386299 7:0.190431 8:0.070255 9:0.233261 10:0.0868496 12:0.621292 
100.577642807193 1:0.288932 4:0.440981 5:0.00299204 6:0.218007 7:0.33022 8:0.0719884 9:0.0836557 10:0.400466 11:0.19211 12:0.384375 
193.5138180728013 1:0.166453 4:0.384751 5:0.00239363 6:0.0430709 7:0.146809 8:0.273817 9:0.155851 11:0.0521939 12:0.376919 
512 1:0.103129 4:0.2803 5:0.00379989 6:0.224918 7:0.43501 8:0.163277 9:0.144564 10:0.0672814 11:0.266277 12:0.543791 
512 1:0.121956 4:0.233627 5:0.00326132 6:0.0388219 7:0.135884 8:0.352273 9:0.15205 10:0.0217741 11:0.0705062 12:0.362691 
512 1:0.00527064 4:0.254013 5:0.00496679 6:0.153182 7:0.276591 8:0.277942 9:0.192954 10:0.203032 11:0.18543 12:0.477581 
208.2305329401274 1:0.831142 4:0.0617512 5:0.000179522 6:0.129709 7:0.154566 8:0.134783 9:0.268504 10:0.0833095 11:0.359684 12:0.385671 
512 1:0.413841 4:0.838604 5:0.00810843 6:0.105192 7:0.297303 8:0.178234 9:0.0845392 10:0.0314763 11:0.101923 12:0.471058 
202.661618637755 1:0.119327 4:0.377009 5:0.00272276 6:0.0558163 7:0.126808 8:0.40545 9:0.157054 11:0.090166 12:0.396046 
512 1:0.175766 4:0.213922 5:0.00365029 6:0.0876092 7:0.213949 8:0.216783 9:0.134356 10:0.160793 11:0.0385675 12:0.350375 
412.4159599806288 1:0.188934 4:0.591929 5:0.00152594 6:0.128043 7:0.466551 8:0.186466 9:0.0619106 10:0.115255 12:0.460323 
512 1:0.449983 4:0.387329 5:0.0017653 6:0.116631 7:0.176784 8:0.211966 9:0.158348 10:0.196525 11:0.0707071 12:0.372401 
512 1:0.0919193 4:0.645375 5:0.0029322 6:0.221517 7:0.26862 8:0.161039 9:0.106937 10:0.132718 11:0.214876 12:0.419141 
512 1:0.0552778 4:0.640598 5:0.00379989 6:0.147654 7:0.249513 8:0.123794 9:0.178109 10:0.153034 11:0.165179 12:0.408326 
512 1:0.223088 4:0.385183 5:0.00290228 6:0.187451 7:0.283895 8:0.19451 9:0.118399 10:0.240454 11:0.21628 12:0.658698 
512 1:0.135182 4:0.414022 5:0.00290228 6:0.0863079 7:0.210614 8:0.278652 9:0.138777 10:0.129177 11:0.23238 12:0.399194 
24.42333386953764 1:0.0430337 4:0.617949 5:0.00167554 6:0.0488393 7:0.203872 8:0.177778 9:0.0885389 10:0.109885 12:0.739286 
512 1:0.0715941 4:0.288483 5:0.00155586 6:0.073786 7:0.18634 8:0.312793 9:0.163199 10:0.0552394 11:0.119247 12:0.511915 
196.908056386218 1:0.117304 4:0.991497 5:0.00227395 6:0.116383 7:0.419863 8:0.211966 9:0.175943 10:0.131017 12:0.605585 
512 1:0.169948 4:0.145034 5:0.00388965 6:0.178792 7:0.313039 8:0.278027 9:0.156928 10:0.148936 11:0.160756 12:0.500198 
512 1:0.0431553 4:0.244844 5:0.00622345 6:0.201419 7:0.355566 8:0.155914 9:0.135887 10:0.168649 11:0.182033 12:0.490365 
512 1:0.0565678 4:0.642555 5:0.00460774 6:0.0941804 7:0.292426 8:0.136828 9:0.136289 10:0.169147 11:0.0456426 12:0.472237 
500.8250875481767 1:0.0658855 4:0.124401 5:0.000628329 6:0.214857 7:0.517094 8:0.0459259 9:0.152484 10:0.113548 11:0.0612795 12:0.573937 
512 1:0.20533 4:0.358372 5:0.00338101 6:0.314697 7:0.54146 8:0.207749 9:0.112087 10:0.064205 11:0.207901 12:0.48042 
25.1700408757191 1:0.817053 4:0.0556629 5:0.00122674 6:0.202662 7:0.334979 8:0.226277 9:0.199091 10:0.237767 11:0.181155 12:0.554549 
512 1:0.212033 4:0.196514 5:0.00236371 6:0.140228 7:0.43728 8:0.142529 9:0.0878846 10:0.125853 11:0.108673 12:0.642099 
512 1:0.244232 4:0.0418626 5:0.00137634 6:0.183988 7:0.331782 8:0.232864 9:0.139168 10:0.0863603 11:0.0932138 12:0.481715 
512 1:0.0877638 4:0.553139 5:0.00191491 6:0.172858 7:0.393283 8:0.279437 9:0.208752 10:0.172721 11:0.186428 12:0.654143 
512 1:0.701124 4:0.358147 5:0.00149602 6:0.316551 7:0.347929 8:0.230162 9:0.152837 10:0.284528 11:0.153554 12:0.479167 
512 1:0.399204 4:0.614247 5:0.00326132 6:0.0886343 7:0.40293 8:0.0460111 9:0.213873 10:0.113758 11:0.0613932 12:0.515104 
56.32434125847981 1:0.0862032 4:0.0616127 5:0.00320148 6:0.128601 7:0.339951 8:0.142416 9:0.136963 10:0.127488 11:0.150711 12:0.417504 
192.9799300611101 1:0.51884 4:0.994747 5:0.00562504 6:0.35861 7:0.407517 8:0.0868651 9:0.0721026 10:0.107383 11:0.173858 12:0.576759 
512 1:0.155671 4:0.0418041 5:0.00119682 6:0.0341875 7:0.181048 8:0.230368 9:0.208868 10:0.0219063 11:0.0945792 12:0.450502 
512 1:0.192351 4:0.992005 5:0.00242355 6:0.08205 7:0.332269 9:0.0661375 11:0.132895 12:0.439875 
512 1:0.226075 4:0.271735 5:0.00203459 6:0.134069 7:0.263962 8:0.0973822 9:0.0862211 10:0.0401281 11:0.303189 12:0.524265 
512 1:0.589034 4:0.539568 5:0.00230387 6:0.0938787 7:0.284639 8:0.170642 9:0.113313 10:0.0703163 11:0.0758966 12:0.399671 
512 1:0.194126 4:0.282154 5:0.00544551 6:0.0881576 7:0.192109 8:0.307121 9:0.123214 10:0.142374 11:0.119523 12:0.373646 
116.2690653386818 1:0.0190035 4:0.627797 5:0.00149602 6:0.0830466 7:0.12612 8:0.201626 9:0.033472 10:0.249251 11:0.134516 12:0.209514 
512 1:0.532885 4:0.60575 5:0.00251331 6:0.129009 7:0.33006 8:0.117258 9:0.116796 10:0.0724773 11:0.234687 12:0.442438 
185.1402884520475 1:0.0975204 4:0.426669 5:0.00296212 6:0.0581091 7:0.198036 8:0.140709 9:0.198553 11:0.0938749 12:0.568077 
282.1281529018532 1:0.290732 4:0.582271 5:0.00143618 6:0.213672 7:0.202782 8:0.291765 9:0.290616 10:0.240454 11:0.129768 12:0.429565 
512 1:0.325795 4:0.141802 5:0.00499671 6:0.202939 7:0.323276 8:0.269027 9:0.126932 10:0.218797 11:0.113357 12:0.483679 
512 1:0.523903 4:0.0164599 5:0.000239363 6:0.251908 7:0.425522 8:0.228571 9:0.0921527 10:0.181647 11:0.196062 12:0.570271 
300.0476178657507 1:0.434185 4:0.146728 5:0.000957453 6:0.230929 7:0.349799 8:0.0364706 9:0.036327 10:0.0450851 11:0.145989 12:0.436949 
512 1:0.506968 4:0.18504 5:0.00137634 6:0.499869 7:0.56103 8:0.0972549 9:0.0968719 10:0.200378 11:0.21628 12:0.532025 
512 1:0.678544 4:0.0506739 5:0.000508647 6:0.180955 7:0.298418 8:0.234626 9:0.179172 10:0.232037 11:0.156532 12:0.525815 
512 1:0.0543906 4:0.0493711 5:0.0017653 6:0.0333728 7:0.1589 8:0.270649 9:0.212829 10:0.0440234 11:0.0380137 12:0.443879 
285.5203109132673 1:0.573188 4:0.0881131 5:0.000658249 6:0.12999 7:0.334667 8:0.188832 9:0.135842 10:0.0778119 11:0.0419935 12:0.524715 
512 1:0.209325 4:0.435896 5:0.00299204 6:0.450609 7:0.422875 8:0.213486 9:0.0945092 10:0.307899 11:0.427286 12:0.268759 
512 1:0.404357 4:0.337646 5:0.00341093 6:0.133675 7:0.359234 8:0.145597 9:0.0886255 10:0.119992 11:0.129514 12:0.550128 
9.38618620143334 1:0.098286 4:0.344599 5:0.00379989 6:0.110381 7:0.33885 9:0.14783 10:0.0550411 11:0.0594092 12:0.469927 
512 1:0.154507 4:0.341187 5:0.00335109 6:0.0755905 7:0.202884 8:0.249497 9:0.124257 10:0.123372 11:0.099872 12:0.383574 
7.252961801464108 1:0.00822376 4:0.82922 5:0.00577464 6:0.36907 7:0.581087 8:0.105832 9:0.0468513 10:0.261661 11:0.376568 12:0.560502 
512 1:0.0973008 4:0.549269 5:0.00388965 6:0.0761838 7:0.331748 8:0.138354 9:0.126325 10:0.213793 11:0.0461519 12:0.59462 
512 1:0.20117 4:0.497408 5:0.002633 6:0.0759722 7:0.249433 8:0.138033 9:0.168043 10:0.170638 11:0.0613932 12:0.670833 
512 1:0.0637464 4:0.579073 5:0.00314164 6:0.210575 7:0.40354 8:0.135027 9:0.134496 10:0.0556405 11:0.240224 12:0.433594 
388.6762008270168 1:0.0092013 4:0.527389 5:0.00403926 6:0.0528673 7:0.140116 8:0.128 9:0.15937 10:0.0395586 11:0.0853959 12:0.408465 
23.93441732348837 1:0.781386 4:0.0994004 5:0.000239363 6:0.163913 7:0.4087 8:0.170447 9:0.0848878 11:0.227429 12:0.553831 
512 1:0.153022 4:0.0403794 5:0.00236371 6:0.186355 7:0.278207 8:0.275753 9:0.165391 10:0.153949 11:0.18397 12:0.45352 
512 1:0.174603 4:0.231746 5:0.0013165 6:0.139541 7:0.361173 8:0.168995 9:0.140275 10:0.104456 11:0.112746 12:0.561065 
512 1:0.172449 4:0.0686532 5:0.00188499 6:0.0830466 7:0.350314 8:0.246539 9:0.166744 10:0.124167 11:0.0365511 12:0.523785 
512 1:0.151326 4:0.494047 5:0.00341093 6:0.0877853 7:0.310256 8:0.177143 9:0.141156 10:0.087594 11:0.0945455 12:0.553673 
148.9488490376152 1:0.0619085 4:0.186511 5:0.00697146 6:0.433195 7:0.506819 8:0.0865736 9:0.0685439 10:0.23051 11:0.25769 12:0.479295 
512 1:0.0413539 4:0.861965 5:0.00412902 6:0.12662 7:0.405146 8:0.204536 9:0.152798 10:0.126424 11:0.136457 12:0.572338 
512 1:0.299164 4:0.340092 5:0.00248339 6:0.156233 7:0.473249 8:0.166891 9:0.088658 10:0.0825246 11:0.0890738 12:0.652092 
512 1:0.374202 4:0.114999 5:0.000897612 6:0.0672817 7:0.305671 8:0.213793 9:0.212951 10:0.113268 11:0.0407524 12:0.405789 
512 1:0.00988861 4:0.481908 5:0.00376997 6:0.0344893 7:0.25463 8:0.281818 9:0.218329 10:0.0387095 11:0.0835629 12:0.538383 
512 1:0.490863 4:0.625623 5:0.00203459 6:0.245659 7:0.37268 8:0.223423 9:0.0247271 10:0.276197 11:0.298116 12:0.503555 
512 1:0.0303111 4:0.859534 5:0.00379989 6:0.167511 7:0.346268 8:0.0553571 9:0.183797 10:0.205298 11:0.221591 12:0.475432 
512 1:0.279508 4:0.161601 5:0.00101729 6:0.229306 7:0.339466 8:0.340763 9:0.0628558 10:0.187224 11:0.151561 12:0.44374 
512 1:0.196188 4:0.395051 5:0.00236371 6:0.223813 7:0.466232 8:0.121967 9:0.148484 10:0.0502588 11:0.162742 12:0.508183 
73.4057010915228 1:0.388693 4:0.92848 5:0.00448806 6:0.61398 7:0.687344 8:0.0507157 9:0.0673547 10:0.188085 11:0.203012 12:0.448852 
512 1:0.276046 4:0.297669 5:0.00218419 6:0.0912884 7:0.186652 8:0.298396 9:0.24218 10:0.122959 11:0.0884784 12:0.388643 
330.9124458574876 1:0.0939168 4:0.804908 5:0.00254323 6:0.148181 7:0.224823 8:0.308075 9:0.127859 10:0.476054 11:0.102767 12:0.460623 
512 1:0.130598 4:0.218369 5:0.00305188 6:0.503969 7:0.583106 8:0.105532 9:0.116796 10:0.369634 11:0.328562 12:0.559311 
512 1:0.180642 4:0.12116 5:0.00245347 6:0.138097 7:0.237012 8:0.244455 9:0.162329 10:0.0906591 11:0.146781 12:0.458867 
512 1:0.0496582 4:0.217993 5:0.0032314 6:0.0548829 7:0.176518 8:0.381794 9:0.22597 10:0.0410414 11:0.0885968 12:0.437019 
512 1:0.00707489 4:0.357242 5:0.00269284 6:0.0267438 7:0.141762 8:0.32376 9:0.161242 10:0.0400234 11:0.0431996 12:0.497596 
512 1:0.0955821 4:0.761208 5:0.00374005 6:0.191834 7:0.384186 8:0.199197 9:0.132275 10:0.369372 11:0.0664476 12:0.427793 
512 1:0.143237 4:0.449407 5:0.00759978 6:0.196965 7:0.401508 8:0.145882 9:0.125934 10:0.0541022 11:0.175187 12:0.673115 
512 1:0.178737 4:0.581732 5:0.00221411 6:0.140256 7:0.385494 8:0.255013 9:0.169339 10:0.236436 11:0.0850666 12:0.530769 
81.34926214113813 1:0.0636193 4:0.543556 5:0.00379989 6:0.231453 7:0.343269 8:0.105085 9:0.151191 10:0.216511 11:0.0934771 12:0.419693 
426.6877497231047 1:0.712266 4:0.358314 5:0.00188499 6:0.0506481 7:0.201465 8:0.230056 9:0.0916599 10:0.0568792 11:0.184179 12:0.503125 
40.58927537387648 1:0.635821 4:0.63408 5:0.00155586 6:0.646063 7:0.633593 8:0.196047 9:0.0325459 10:0.242355 11:0.130794 12:0.331078 
512 1:0.0861863 4:0.248928 5:0.00523607 6:0.113365 7:0.330842 8:0.105782 9:0.124878 10:0.116238 11:0.0940974 12:0.569961 
512 1:0.43497 4:0.461235 5:0.00137634 6:0.220565 7:0.334689 8:0.160518 9:0.10659 10:0.297649 11:0.321271 12:0.438206 
512 1:0.195644 4:0.168622 5:0.00302196 6:0.0910655 7:0.241177 8:0.192782 9:0.109727 10:0.136182 11:0.0734945 12:0.463079 
141.6567108803292 1:0.168681 4:0.69372 5:0.00257316 6:0.19845 7:0.246235 8:0.328042 9:0.108917 10:0.0811055 11:0.175084 12:0.443766 
512 1:0.245937 4:0.074939 5:0.000987374 6:0.0559201 7:0.180829 8:0.350595 9:0.21443 10:0.136866 11:0.0492424 12:0.46171 
6.142847668052837 1:0.0723358 4:0.444173 5:0.00245347 6:0.181848 7:0.339831 8:0.264298 9:0.146254 10:0.0544545 11:0.176328 12:0.38996 
35.4121315901077 1:0.244503 4:0.0308672 5:0.0014661 6:0.127975 7:0.260449 8:0.22661 9:0.146808 10:0.116154 11:0.199121 12:0.52609 
149.4248247300745 1:0.160513 4:0.222504 5:0.00394949 6:0.0459664 7:0.197099 8:0.152915 9:0.170775 10:0.10311 11:0.0370974 12:0.55084 
512 1:0.0917663 4:0.667345 5:0.00368021 6:0.109888 7:0.323762 8:0.0887299 9:0.191491 10:0.164533 11:0.0591966 12:0.531362 
512 1:0.127989 4:0.0971529 5:0.00329125 6:0.101931 7:0.286846 8:0.281062 9:0.194004 10:0.0822908 11:0.0986905 12:0.619102 
512 1:0.0295319 4:0.196957 5:0.00520615 6:0.0620651 7:0.273905 8:0.234582 9:0.162003 10:0.034799 11:0.062601 12:0.616537 
512 1:0.0693707 4:0.335824 5:0.00281252 6:0.136589 7:0.261589 8:0.175059 9:0.145308 10:0.180341 11:0.155722 12:0.433277 
512 1:0.196962 4:0.242293 5:0.00158578 6:0.132077 7:0.215456 8:0.221429 9:0.110278 10:0.182487 11:0.147727 12:0.42292 
512 1:0.0541106 4:0.139226 5:0.00385973 6:0.0964421 7:0.209532 8:0.376845 9:0.205555 10:0.144194 11:0.16761 12:0.453865 
157.2735273194489 1:0.100765 4:0.836252 5:0.00275268 6:0.0203497 7:0.231535 8:0.22209 9:0.172056 10:0.0915161 12:0.34654 
512 1:0.122119 4:0.436712 5:0.00499671 6:0.319675 7:0.394318 8:0.150433 9:0.0784881 10:0.265666 11:0.17205 12:0.492857 
512 1:0.087212 4:0.282607 5:0.00329125 6:0.0986736 7:0.325106 8:0.231776 9:0.132921 10:0.130237 11:0.140573 12:0.538147 
512 1:0.190621 4:0.157375 5:0.00403926 6:0.103962 7:0.276294 8:0.164431 9:0.173417 10:0.0956565 11:0.0903418 12:0.595175 
512 1:0.454729 4:0.159648 5:0.000897612 6:0.0579449 7:0.201921 8:0.210526 9:0.223677 10:0.0520508 11:0.0561815 12:0.372775 
512 1:0.159236 4:0.151162 5:0.00260308 6:0.157819 7:0.313481 8:0.186143 9:0.133115 10:0.0531026 11:0.191056 12:0.459121 
162.7248573828882 1:0.69908 4:0.693999 5:0.00230387 6:0.884853 7:0.793183 8:0.0731563 9:0.121447 10:0.361745 11:0.390453 12:0.304412 
512 1:0.251005 4:0.183895 5:0.00149602 6:0.0409431 7:0.161204 8:0.356835 9:0.157969 10:0.0735201 11:0.0396773 12:0.46482 
512 1:0.0787206 4:0.276569 5:0.00771947 6:0.168797 7:0.30537 8:0.204152 9:0.165036 10:0.131673 11:0.201341 12:0.432793 
512 1:0.0535615 4:0.521801 5:0.00406918 6:0.0519304 7:0.229383 8:0.251458 9:0.114798 11:0.0838806 12:0.515862 
22.31148408696647 1:0.00957508 4:0.990399 5:0.00200467 6:0.328726 7:0.374706 9:0.119335 10:0.444317 11:0.319719 12:0.373197 
258.7202631117017 1:0.0481988 4:0.244406 5:0.00472743 6:0.172433 7:0.340824 8:0.127703 9:0.156881 10:0.189441 11:0.153356 12:0.529352 
358.4692588378618 1:0.164134 4:0.501843 5:0.00281252 6:0.359238 7:0.571525 8:0.261053 9:0.130012 10:0.107572 11:0.40638 12:0.453152 
512 1:0.307638 4:0.335805 5:0.0076297 6:0.338876 7:0.481018 8:0.152348 9:0.0650347 10:0.349761 11:0.232319 12:0.417064 
20.21391827743271 1:0.821564 4:0.4587 5:0.00197475 6:0.0309389 7:0.23451 8:0.168707 9:0.0933573 12:0.556137 
512 1:0.182952 4:0.504685 5:0.00233379 6:0.115645 7:0.394394 8:0.210169 9:0.0697806 10:0.19486 11:0.0701079 12:0.396604 
512 1:0.383368 4:0.250987 5:0.00212435 6:0.182228 7:0.299939 8:0.201392 9:0.057314 10:0.071132 11:0.191943 12:0.5172 
512 1:0.099023 4:0.1272 5:0.00344085 6:0.126761 7:0.278111 8:0.275964 9:0.198523 10:0.136459 11:0.135015 12:0.424534 
512 1:0.0732163 4:0.439187 5:0.00296212 6:0.139541 7:0.241562 8:0.217226 9:0.144247 10:0.313292 11:0.0966158 12:0.462054 
51.94928397055524 1:0.0130084 4:0.176682 5:0.00433846 6:0.083486 7:0.265284 8:0.161564 9:0.117343 10:0.0748971 11:0.0943145 12:0.481799 
512 1:0.369895 4:0.453795 5:0.00188499 6:0.480386 7:0.606918 8:0.116432 9:0.0579867 10:0.143934 11:0.310713 12:0.393882 
512 1:0.0194152 4:0.490048 5:0.00379989 6:0.0608938 7:0.177854 8:0.157962 9:0.14685 10:0.0781093 11:0.084308 12:0.452648 
512 1:0.128205 4:0.526361 5:0.00182515 6:0.0383053 7:0.319552 8:0.208989 9:0.161907 11:0.092952 12:0.597952 
512 1:0.19567 4:0.312755 5:0.00257316 6:0.294086 7:0.402047 8:0.17799 9:0.0787953 10:0.146688 11:0.118747 12:0.486895 
512 1:0.0329166 4:0.239076 5:0.00517623 6:0.0849965 7:0.309637 8:0.194196 9:0.117576 10:0.0706078 11:0.106696 12:0.568845 
507.5527133209162 1:0.0439464 4:0.997288 5:0.00362037 
512 1:0.0776683 4:0.466497 5:0.00266292 6:0.129231 7:0.347103 8:0.34148 9:0.127551 10:0.158302 11:0.0569551 12:0.477932 
512 1:0.378126 4:0.277948 5:0.00254323 6:0.191156 7:0.356233 8:0.213563 9:0.0797707 10:0.165005 11:0.14248 12:0.584274 
512 1:0.0519307 4:0.518673 5:0.0045479 6:0.470223 7:0.525265 8:0.0559819 9:0.0929358 10:0.311423 11:0.261441 12:0.415692 
180.2128698142527 1:0.139307 4:0.444101 5:0.00257316 6:0.0347081 7:0.262929 8:0.168136 9:0.18143 11:0.112173 12:0.481599 
512 1:0.0487565 4:0.36368 5:0.0042487 6:0.110095 7:0.210522 8:0.294487 9:0.167616 10:0.15602 11:0.168402 12:0.394703 
14.32164006464691 1:0.243404 4:0.325194 5:0.00215427 6:0.0504985 7:0.198882 8:0.293491 9:0.133987 11:0.0979021 12:0.477751 
512 1:0.503144 4:0.317125 5:0.0016157 6:0.429786 7:0.513147 8:0.331298 9:0.0942837 10:0.117015 11:0.189452 12:0.492857 
512 1:0.240063 4:0.320979 5:0.00185507 6:0.32285 7:0.462939 8:0.167568 9:0.152999 10:0.207148 11:0.223587 12:0.523609 
512 1:0.306783 4:0.228364 5:0.00335109 6:0.392694 7:0.482481 8:0.0838404 9:0.0835103 10:0.393847 11:0.201365 12:0.463302 
330.3915490467531 1:0.00388552 4:0.604347 5:0.00314164 6:0.336059 7:0.548433 8:0.0939394 9:0.0467847 10:0.290321 11:0.188017 12:0.464674 
512 1:0.0172743 4:0.483709 5:0.00326132 6:0.0499088 7:0.362873 8:0.253801 9:0.156496 10:0.089643 11:0.0483785 12:0.68937 
512 1:0.0412763 4:0.14256 5:0.0042487 6:0.0782744 7:0.193322 8:0.267295 9:0.155308 10:0.123912 11:0.0445819 12:0.433428 
512 1:0.591732 4:0.112831 5:0.00164562 6:0.176033 7:0.287469 8:0.201763 9:0.206551 10:0.062355 11:0.201911 12:0.43388 
512 1:0.0259833 4:0.133449 5:0.00466758 6:0.0727812 7:0.22767 8:0.299741 9:0.191932 10:0.0970466 11:0.0857031 12:0.441051 
512 1:0.223388 4:0.32688 5:0.00305188 6:0.194945 7:0.338899 8:0.131078 9:0.0783372 10:0.0972238 11:0.174899 12:0.539632 
329.894100947864 1:0.247331 4:0.715759 5:0.00332117 6:0.0579449 7:0.252509 8:0.473885 9:0.174822 10:0.0650911 11:0.140513 12:0.507084 
64.38744316988632 1:0.0853658 4:0.304971 5:0.00107713 6:0.295676 7:0.546522 9:0.0892587 10:0.166167 12:0.611909 
512 1:0.274632 4:0.186695 5:0.00218419 6:0.120967 7:0.322639 8:0.271838 9:0.104141 10:0.0516997 11:0.195309 12:0.457772 
273.8867006395556 1:0.539854 4:0.108596 5:0.000777931 6:0.227311 7:0.3305 8:0.165113 9:0.0657852 10:0.204114 11:0.17625 12:0.524726 
121.963722796393 1:0.008546 4:0.450894 5:0.00218419 6:0.206779 7:0.302944 8:0.350707 9:0.216249 10:0.371611 11:0.200551 12:0.404297 
482.1351148585526 1:0.015599 4:0.735873 5:0.0040991 6:0.278341 7:0.375902 8:0.175887 9:0.116796 10:0.326148 11:0.117344 12:0.412168 
512 1:0.0230062 4:0.558535 5:0.00287236 6:0.104389 7:0.266951 8:0.284512 9:0.141696 10:0.234477 11:0.0632713 12:0.506143 
512 1:0.352763 4:0.627009 5:0.00379989 6:0.42248 7:0.429508 8:0.0807818 9:0.067053 10:0.499314 11:0.215576 12:0.410213 
512 1:0.0597023 4:0.633291 5:0.00335109 6:0.127091 7:0.41406 8:0.092365 9:0.168669 11:0.184865 12:0.565114 
475.4244378327052 1:0.207007 4:0.364951 5:0.00149602 6:0.0967571 7:0.293387 8:0.351773 9:0.155728 10:0.0724773 12:0.503464 
512 1:0.243627 4:0.096392 5:0.00254323 6:0.117214 7:0.299536 8:0.245732 9:0.175728 10:0.0934692 11:0.0882761 12:0.475607 
287.0376116896703 1:0.00374728 4:0.81704 5:0.0040991 6:0.120899 7:0.244296 8:0.195276 9:0.162089 10:0.0603502 11:0.260558 12:0.330427 
512 1:0.00800373 4:0.472425 5:0.00753994 6:0.191586 7:0.415608 8:0.0927103 9:0.194951 10:0.210116 11:0.226791 12:0.511539 
512 1:0.190149 4:0.342522 5:0.00185507 6:0.0860836 7:0.223608 8:0.268108 9:0.148362 10:0.0552394 11:0.119247 12:0.349033 
512 1:0.451262 4:0.272816 5:0.00143618 6:0.276517 7:0.342825 8:0.137017 9:0.0454923 10:0.0564602 11:0.121882 12:0.416188 
448.8193293932957 1:0.184165 4:0.363055 5:0.00188499 6:0.0897983 7:0.311034 8:0.13985 9:0.139299 10:0.23051 11:0.062201 12:0.582552 
512 1:0.148661 4:0.437527 5:0.00254323 6:0.230607 7:0.270776 8:0.0418919 9:0.13909 10:0.155361 11:0.279484 12:0.436341 
28.52712423517269 1:0.0330196 4:0.67352 5:0.00248339 6:0.0181366 7:0.137525 8:0.197872 9:0.109496 11:0.0880077 12:0.463279 
512 1:0.120622 4:0.592142 5:0.00649273 6:0.105097 7:0.355648 8:0.0673303 9:0.111775 10:0.0277447 11:0.0898396 12:0.532239 
512 1:0.27057 4:0.256526 5:0.00101729 6:0.295853 7:0.286582 8:0.119518 9:0.15873 10:0.295498 11:0.318949 12:0.357647 
512 1:0.762061 4:0.136791 5:0.00074801 6:0.259801 7:0.322065 8:0.214533 9:0.142459 10:0.212165 11:0.286254 12:0.346341 
512 1:0.378476 4:0.590893 5:0.00314164 6:0.164302 7:0.268123 8:0.183704 9:0.243974 10:0.113548 11:0.183838 12:0.430453 
95.33396141363521 1:0.00753135 4:0.781885 5:0.002633 6:0.318023 7:0.467344 8:0.144606 9:0.0720185 10:0.178763 11:0.19295 12:0.319677 
24.08979665024286 1:0.639398 4:0.127224 5:0.000478727 6:0.198188 7:0.400654 9:0.179436 10:0.0742322 12:0.484375 
512 1:0.312082 4:0.212064 5:0.00110706 6:0.0377068 7:0.199981 8:0.319705 9:0.227462 11:0.0609409 12:0.487534 
512 1:0.24707 4:0.860046 5:0.00430854 6:0.39033 7:0.469158 8:0.0978304 9:0.0324817 10:0.241877 11:0.391608 12:0.356545 
512 1:0.234837 4:0.505342 5:0.00356053 6:0.153007 7:0.282446 8:0.104202 9:0.184518 10:0.128815 11:0.231729 12:0.515691 
512 1:0.156848 4:0.162793 5:0.00371013 6:0.10487 7:0.340044 8:0.195704 9:0.111906 10:0.107524 11:0.0870432 12:0.518747 
512 1:0.470323 4:0.294209 5:0.00122674 6:0.173301 7:0.2269 8:0.11455 9:0.114099 10:0.21241 11:0.152845 12:0.402434 
512 1:0.207451 4:0.0652696 5:0.00385973 6:0.0916108 7:0.234879 8:0.310755 9:0.140436 10:0.112046 11:0.0633484 12:0.46937 
384.4683268172093 1:0.229303 4:0.108324 5:0.000658249 6:0.105844 7:0.392831 8:0.192248 9:0.140427 10:0.0475316 11:0.102607 12:0.500677 
512 1:0.170448 4:0.226943 5:0.00245347 6:0.068562 7:0.231183 8:0.339416 9:0.180309 10:0.139863 11:0.12077 12:0.412773 
512 1:0.11091 4:0.383669 5:0.00182515 6:0.125844 7:0.254309 8:0.254098 9:0.202478 10:0.188471 11:0.0678092 12:0.476227 
512 1:0.047734 4:0.232653 5:0.00433846 6:0.255403 7:0.472093 8:0.132408 9:0.114302 10:0.147315 11:0.229675 12:0.479806 
512 1:0.200464 4:0.472846 5:0.00403926 6:0.284566 7:0.412957 8:0.114815 9:0.133423 10:0.106451 11:0.268098 12:0.680527 
512 1:0.0407813 4:0.16815 5:0.00388965 6:0.129901 7:0.301545 8:0.246393 9:0.167172 10:0.198647 11:0.0857648 12:0.494373 
512 1:0.0340772 4:0.428557 5:0.00287236 6:0.120308 7:0.273354 8:0.254919 9:0.120912 10:0.135057 11:0.145775 12:0.531158 
401.5061996806665 1:0.182001 4:0.932207 5:0.00406918 6:0.324125 7:0.526453 8:0.0561086 9:0.111775 10:0.208085 11:0.149733 12:0.540279 
267.5853600146943 1:0.221653 4:0.41138 5:0.00272276 6:0.355063 7:0.391854 8:0.11055 9:0.0244699 10:0.136662 11:0.196677 12:0.412695 
512 1:0.241093 4:0.710194 5:0.00350069 6:0.245659 7:0.237863 8:0.0992 9:0.181151 10:0.183947 11:0.397091 12:0.400262 
512 1:0.144363 4:0.247143 5:0.00167554 6:0.2456 7:0.305048 8:0.142734 9:0.106629 10:0.22056 11:0.285677 12:0.408944 
9.948271616891079 1:0.588516 4:0.16179 5:0.00137634 6:0.156465 7:0.325775 8:0.142039 9:0.113184 10:0.210707 11:0.0758096 12:0.45148 
512 1:0.282216 4:0.337086 5:0.00164562 6:0.258275 7:0.267818 8:0.296414 9:0.229637 10:0.183215 12:0.437251 
512 1:0.337055 4:0.289257 5:0.00233379 6:0.0748631 7:0.26453 8:0.181242 9:0.120352 10:0.112026 11:0.0806112 12:0.377737 
71.68924340975767 1:0.257464 4:0.0885317 5:0.000837772 6:0.577915 7:0.574549 8:0.101121 9:0.0755423 10:0.250013 11:0.37105 12:0.36889 
512 1:0.363727 4:0.586382 5:0.0042487 6:0.484401 7:0.479705 8:0.101501 9:0.123568 10:0.460078 11:0.270867 12:0.440651 
512 1:0.178328 4:0.745158 5:0.00412902 6:0.182496 7:0.322608 8:0.176827 9:0.176131 10:0.163946 11:0.0589856 12:0.49494 
87.71013263183075 1:0.225287 4:0.634352 5:0.0057148 6:0.556016 7:0.4494 8:0.218262 9:0.11776 10:0.202362 11:0.618862 12:0.454945 
74.25579774075754 1:0.656255 4:0.940216 5:0.00356053 6:0.071039 7:0.148126 8:0.322917 9:0.107215 10:0.0798383 11:0.0861742 12:0.369643 
512 1:0.436813 4:0.328279 5:0.00266292 6:0.240348 7:0.401626 8:0.0902913 9:0.119914 10:0.334856 11:0.200794 12:0.470455 
292.6621385234725 1:0.110096 4:0.146484 5:0.00418886 6:0.203782 7:0.386324 8:0.243564 9:0.147296 10:0.161301 11:0.185708 12:0.641885 
512 1:0.198564 4:0.183904 5:0.00269284 6:0.166543 7:0.262573 8:0.386188 9:0.228571 10:0.103784 11:0.0896165 12:0.450799 
512 1:0.129135 4:0.166676 5:0.0027826 6:0.105756 7:0.292404 8:0.162381 9:0.166643 10:0.0364975 11:0.0984848 12:0.550286 
314.6897353711137 1:0.901634 4:0.0526528 5:0.00173538 6:0.125089 7:0.253415 8:0.207692 9:0.188996 10:0.0855835 11:0.164223 12:0.401163 
512 1:0.00345745 4:0.411891 5:0.00846748 6:0.102645 7:0.305647 8:0.252326 9:0.251332 10:0.0891218 11:0.0961945 12:0.645309 
193.6008667755294 1:0.0131759 4:0.0837619 5:0.00287236 6:0.0222128 7:0.200116 8:0.263752 9:0.17271 10:0.0724559 11:0.0195515 12:0.542565 
428.068644323018 1:0.0450525 4:0.236121 5:0.00397941 6:0.0927255 7:0.393541 8:0.102419 9:0.111731 10:0.072349 11:0.0976133 12:0.480579 
512 1:0.216784 4:0.254971 5:0.00140626 6:0.0119956 7:0.181755 8:0.348682 9:0.24601 11:0.0581563 12:0.578783 
512 1:0.100436 4:0.244597 5:0.00759978 6:0.275084 7:0.436184 8:0.17566 9:0.159062 10:0.0690938 11:0.245039 12:0.618352 
512 1:0.19414 4:0.159654 5:0.00275268 6:0.0591138 7:0.235585 8:0.214533 9:0.180448 10:0.0707218 11:0.152669 12:0.507061 
512 1:0.0179391 4:0.540952 5:0.0043983 6:0.199392 7:0.446638 8:0.0905109 9:0.14024 10:0.298374 11:0.201283 12:0.503038 
218.9558236442391 1:0.0556221 4:0.235942 5:0.0055652 6:0.361543 7:0.404835 8:0.230893 9:0.104538 10:0.259483 11:0.210057 12:0.448763 
216.6509991922617 1:0.256133 4:0.0581217 5:0.00320148 6:0.144743 7:0.219937 8:0.520442 9:0.283882 10:0.178077 11:0.0992045 12:0.362337 
512 1:0.0959492 4:0.594214 5:0.00475735 6:0.109738 7:0.383506 8:0.0919654 9:0.193385 10:0.113688 11:0.12271 12:0.503125 
512 1:0.282377 4:0.0126863 5:0.000418886 6:0.047767 7:0.153149 8:0.379634 9:0.246612 10:0.0408092 11:0.0440478 12:0.411022 
512 1:0.131766 4:0.277898 5:0.00487703 6:0.178201 7:0.316588 8:0.196825 9:0.168043 10:0.121658 11:0.0937951 12:0.439802 
512 1:0.212916 4:0.122809 5:0.00233379 6:0.0931735 7:0.325387 8:0.182066 9:0.125217 10:0.064306 11:0.0694094 12:0.481427 
512 1:0.142991 4:0.0692763 5:0.0013165 6:0.161431 7:0.206295 8:0.299423 9:0.177217 10:0.14484 11:0.208447 12:0.36654 
512 1:0.230666 4:0.072385 5:0.00164562 6:0.105657 7:0.200991 8:0.416254 9:0.196397 10:0.0541659 11:0.116929 12:0.439818 
271.4356196726094 1:0.0103524 4:0.177769 5:0.006014 6:0.113519 7:0.334302 8:0.161803 9:0.107444 10:0.181838 11:0.0981344 12:0.52356 
512 1:0.962705 4:0.487484 5:0.00287236 6:0.364667 7:0.448896 8:0.124207 9:0.123718 10:0.255909 11:0.331462 12:0.43125 
10.8527614334546 1:0.293037 4:0.00531727 5:0.000239363 6:0.0176832 7:0.120393 8:0.342167 9:0.196445 10:0.0264368 11:0.0285348 12:0.384779 
415.2108152190449 1:0.0715106 4:0.525637 5:0.00921549 6:0.612777 7:0.513572 8:0.154824 9:0.0981364 10:0.226193 11:0.338046 12:0.374256 
-512 1:0.403385 4:0.439765 5:0.00254323 6:0.104301 7:0.280934 8:0.168421 9:0.139798 10:0.208203 11:0.0561815 12:0.646875 
-512 1:0.0536454 4:0.449812 5:0.0057148 6:0.101415 7:0.367622 8:0.0775 9:0.180121 10:0.143709 11:0.0517045 12:0.65142 
-512 1:0.0708591 4:0.553176 5:0.0074801 6:0.145586 7:0.303949 8:0.182219 9:0.181501 10:0.270312 11:0.0972547 12:0.512941 
-512 1:0.0198409 4:0.231526 5:0.00727066 6:0.0588125 7:0.233994 8:0.213384 9:0.1312 10:0.0488494 11:0.094907 12:0.451308 
-512 1:0.318901 4:0.138052 5:0.00200467 6:0.214254 7:0.359534 8:0.287389 9:0.168387 10:0.0835934 11:0.157898 12:0.471496 
-512 1:0.778679 4:0.0594719 5:0.00119682 6:0.112146 7:0.195421 8:0.320636 9:0.26205 10:0.137206 11:0.148095 12:0.504768 
-512 1:0.029797 4:0.554349 5:0.00897612 6:0.0545657 7:0.146108 8:0.289435 9:0.136561 10:0.0564949 11:0.0813044 12:0.365331 
-512 1:0.00549981 4:0.22371 5:0.00191491 6:0.125172 7:0.26062 8:0.170447 9:0.0943197 10:0.175589 11:0.113714 12:0.407072 
-240.5844799880478 1:0.610703 4:0.676268 5:0.00837772 6:0.509525 7:0.526631 8:0.0397755 9:0.0924439 10:0.516292 11:0.265364 12:0.368014 
-512 1:0.234962 4:0.108019 5:0.00368021 6:0.143713 7:0.28787 8:0.315783 9:0.173119 10:0.0998628 11:0.0685923 12:0.430867 
-512 1:0.462946 4:0.462165 5:0.00436838 6:0.107283 7:0.292388 8:0.18178 9:0.146576 10:0.192615 11:0.0693003 12:0.453354 
-512 1:0.408295 4:0.386993 5:0.00149602 6:0.205125 7:0.207356 9:0.185732 10:0.23051 11:0.414673 12:0.501328 
-512 1:0.43384 4:0.0596597 5:0.0045479 6:0.0408875 7:0.189772 8:0.316868 9:0.164526 10:0.0500061 11:0.0494767 12:0.456276 
-512 1:0.422619 4:0.351065 5:0.00218419 6:0.182763 7:0.333872 8:0.195276 9:0.142638 10:0.0965603 11:0.156335 12:0.569575 
-178.2137386034175 1:0.528755 4:0.349965 5:0.00523607 6:0.544459 7:0.569971 8:0.0988048 9:0.125753 10:0.386786 11:0.285645 12:0.416369 
-512 1:0.0504587 4:0.520677 5:0.00379989 6:0.110878 7:0.314875 8:0.201353 9:0.155991 10:0.165943 11:0.0895559 12:0.603167 
-178.0478076467291 1:0.680964 4:0.09342 5:0.00236371 6:0.358297 7:0.511344 8:0.147736 9:0.0588618 10:0.206983 11:0.249693 12:0.472509 
-512 1:0.534383 4:0.205085 5:0.00149602 6:0.2735 7:0.269248 8:0.132443 9:0.208876 10:0.286522 11:0.13254 12:0.422625 
-512 1:0.0269817 4:0.514668 5:0.00326132 6:0.106172 7:0.321676 8:0.231415 9:0.0768347 10:0.190718 11:0.15439 12:0.452009 
-512 1:0.0431322 4:0.482834 5:0.00338101 6:0.211568 7:0.335019 8:0.0349296 9:0.0927787 10:0.12954 11:0.186428 12:0.391218 
-512 1:0.302009 4:0.388851 5:0.00233379 6:0.0780791 7:0.329521 8:0.121569 9:0.134544 10:0.200378 12:0.44321 
-512 1:0.404997 4:0.0679855 5:0.00254323 6:0.0409766 7:0.176122 8:0.385177 9:0.17949 10:0.0668292 11:0.0540996 12:0.403526 
-512 1:0.0972122 4:1 5:0.00281252 7:0.289283 9:0.143953 12:0.428245 
-512 1:0.220469 4:0.100808 5:0.00460774 6:0.0743207 7:0.191601 8:0.418194 9:0.173561 10:0.0816274 11:0.0881054 12:0.383131 
-512 1:0.157189 4:0.274474 5:0.00302196 6:0.239159 7:0.329566 8:0.267145 9:0.0886978 10:0.220164 11:0.178228 12:0.574355 
-512 1:0.0363179 4:0.208438 5:0.00652265 6:0.0481206 7:0.208492 8:0.301568 9:0.17127 10:0.0686737 11:0.0529455 12:0.523542 
-465.1341120966308 1:0.333642 4:0.622259 5:0.00882652 6:0.057458 7:0.130451 8:0.208549 9:0.201958 10:0.0644525 11:0.0231891 12:0.394105 
-512 1:0.445214 4:0.548135 5:0.00745018 6:0.0849069 7:0.219236 8:0.435088 9:0.144458 10:0.134464 11:0.0241893 12:0.378013 
-108.7597844929742 1:0.361798 4:0.653499 5:0.00338101 6:0.14299 7:0.374278 8:0.0944762 9:0.0627361 10:0.350376 11:0.0630303 12:0.479622 
-512 1:0.249094 4:0.604883 5:0.00403926 6:0.363589 7:0.359518 8:0.0733728 9:0.0974451 10:0.272111 11:0.195804 12:0.410866 
-512 1:0.134813 4:0.470501 5:0.00359045 6:0.238517 7:0.334472 8:0.128331 9:0.202391 10:0.237966 11:0.171234 12:0.493096 
-512 1:0.163298 4:0.0561127 5:0.00365029 6:0.0599016 7:0.225719 8:0.323976 9:0.191522 10:0.0927991 11:0.0579895 12:0.488402 
-512 1:0.680086 4:0.174088 5:0.00167554 6:0.125203 7:0.331741 8:0.176782 9:0.117391 10:0.124879 11:0.101092 12:0.519869 
-512 1:0.00573565 4:0.636255 5:0.00625337 6:0.392881 7:0.52179 8:0.125126 9:0.141251 10:0.216554 11:0.267131 12:0.449943 
-512 1:0.272655 4:0.108266 5:0.00640297 6:0.107991 7:0.342717 8:0.200137 9:0.12583 10:0.105281 11:0.102273 12:0.598568 
-512 1:0.139966 4:0.044304 5:0.00119682 6:0.121132 7:0.278825 8:0.280543 9:0.211131 10:0.127163 11:0.124777 12:0.582748 
-512 1:0.349146 4:0.500024 5:0.0043983 6:0.0998736 7:0.279196 8:0.0836895 9:0.129671 10:0.103457 11:0.111668 12:0.603265 
-512 1:0.134436 4:0.117203 5:0.00427862 6:0.260656 7:0.328631 8:0.171318 9:0.18202 10:0.271084 11:0.219448 12:0.446737 
-512 1:0.214858 4:0.226131 5:0.00197475 6:0.260915 7:0.464804 8:0.167191 9:0.129525 10:0.172235 11:0.223085 12:0.551768 
-512 1:0.0596321 4:0.187104 5:0.00194483 6:0.0646267 7:0.283741 8:0.375402 9:0.241492 10:0.0290046 11:0.125226 12:0.599185 
-224.2183144864849 1:0.678599 4:0.681093 5:0.00272276 6:0.418964 7:0.559021 8:0.243735 9:0.121387 10:0.451959 11:0.0813044 12:0.539063 
-512 1:0.0191697 4:0.288945 5:0.00595416 6:0.0660947 7:0.27255 8:0.143907 9:0.167231 10:0.0444747 11:0.0960084 12:0.587784 
-512 1:0.164222 4:0.183856 5:0.00478727 6:0.0813988 7:0.244343 8:0.266769 9:0.183472 10:0.0588895 11:0.127126 12:0.444664 
-512 1:0.126512 4:0.335651 5:0.00490695 6:0.0789121 7:0.252926 8:0.252717 9:0.111877 10:0.0833095 11:0.0449605 12:0.42598 
-505.2728836652464 1:0.476971 4:0.182201 5:0.00221411 6:0.149848 7:0.298243 8:0.201462 9:0.180602 10:0.0996195 11:0.215051 12:0.530311 
-59.3317126008456 1:0.531897 4:0.368274 5:0.00502663 6:0.0695676 7:0.22188 8:0.270545 9:0.233549 10:0.06689 11:0.0240661 12:0.404297 
-512 1:0.12142 4:0.753027 5:0.00433846 6:0.105372 7:0.310434 8:0.127616 9:0.127113 10:0.157759 11:0.170279 12:0.587061 
-512 1:0.0327646 4:0.258901 5:0.0089462 6:0.0593877 7:0.185693 8:0.229829 9:0.174078 10:0.0621504 11:0.114999 12:0.447606 
-512 1:0.0593019 4:0.648924 5:0.00724074 6:0.0911667 7:0.239225 8:0.198577 9:0.197795 10:0.109103 11:0.0588806 12:0.50025 
-512 1:0.49768 4:0.518526 5:0.0016157 6:0.276048 7:0.27385 8:0.154517 9:0.0256514 10:0.191015 11:0.206174 12:0.421875 
-512 1:0.0264756 4:0.741545 5:0.00505655 6:0.218007 7:0.34523 8:0.107983 9:0.0717049 10:0.266977 11:0.19211 12:0.45 
-512 1:0.20374 4:0.148777 5:0.00631321 6:0.162257 7:0.461494 8:0.111844 9:0.0918593 10:0.130986 11:0.133526 12:0.557227 
-512 1:0.333085 4:0.227824 5:0.0040991 6:0.113391 7:0.311744 8:0.233186 9:0.154845 10:0.0508704 11:0.07321 12:0.368315 
-512 1:0.255537 4:0.245639 5:0.00493687 6:0.115201 7:0.353788 8:0.24591 9:0.163294 10:0.151997 11:0.065624 12:0.519295 
-512 1:0.0546863 4:0.434632 5:0.00487703 6:0.319848 7:0.397413 8:0.153357 9:0.167301 10:0.0812488 11:0.350787 12:0.485299 
-63.82897370385435 1:0.9305 4:0.251306 5:0.00311172 6:0.251218 7:0.297608 8:0.297362 9:0.217207 10:0.294081 11:0.132258 12:0.335838 
-512 1:0.126182 4:0.106178 5:0.00104721 6:0.0403789 7:0.117174 8:0.219901 9:0.170361 10:0.120819 11:0.0326019 12:0.337445 
-512 1:0.0963972 4:0.259122 5:0.00472743 6:0.078292 7:0.222861 8:0.270595 9:0.157225 10:0.100353 11:0.144423 12:0.454999 
-512 1:0.159877 4:0.479616 5:0.00379989 6:0.187329 7:0.509357 8:0.0309227 9:0.10267 10:0.191134 11:0.123781 12:0.515567 
-512 1:0.0230001 4:0.136593 5:0.00374005 6:0.0600879 7:0.215929 8:0.245275 9:0.238277 10:0.06738 11:0.0727273 12:0.46899 
-512 1:0.139761 4:0.106895 5:0.00305188 6:0.134871 7:0.293348 8:0.235941 9:0.176984 10:0.140434 11:0.139919 12:0.505834 
-512 1:0.332408 4:0.471932 5:0.00371013 6:0.0857905 7:0.246854 8:0.21809 9:0.134477 11:0.124714 12:0.519448 
-512 1:0.165007 4:0.140083 5:0.00251331 6:0.0720136 7:0.177814 8:0.247587 9:0.210077 10:0.0850191 11:0.110119 12:0.408779 
-34.22405206375326 1:0.756982 4:0.621626 5:0.00580456 6:0.4568 7:0.537953 8:0.0789809 9:0.139858 10:0.390546 11:0.281027 12:0.459604 
-512 1:0.16078 4:0.527577 5:0.00691162 6:0.0725189 7:0.254823 8:0.206823 9:0.174795 10:0.0697299 11:0.100352 12:0.470455 
-512 1:0.167485 4:0.243632 5:0.00646281 6:0.144164 7:0.241505 8:0.205499 9:0.164372 10:0.12702 11:0.162027 12:0.372635 
-512 1:0.294384 4:0.0679177 5:0.00248339 6:0.0952298 7:0.243491 8:0.2764 9:0.236309 10:0.102506 11:0.110641 12:0.410829 
-512 1:0.0544569 4:0.591415 5:0.00730058 6:0.362761 7:0.411845 8:0.219469 9:0.139112 10:0.22198 11:0.266218 12:0.395197 
-512 1:0.177043 4:0.072416 5:0.00119682 6:0.0327938 7:0.176811 8:0.193401 9:0.227216 10:0.0183911 11:0.0794023 12:0.546819 
-512 1:0.223318 4:0.349856 5:0.00194483 6:0.275899 7:0.472564 8:0.0435852 9:0.0868272 10:0.107761 11:0.407094 12:0.60148 
-512 1:0.135472 4:0.367713 5:0.00287236 6:0.0688917 7:0.260829 8:0.125095 9:0.20767 10:0.115982 11:0.0834575 12:0.464381 
-87.74511244076059 1:0.782033 4:0.124446 5:0.00257316 6:0.214497 7:0.374525 8:0.251473 9:0.250482 10:0.162838 11:0.223695 12:0.574445 
-512 1:0.0274008 4:0.550395 5:0.00110706 6:0.0972156 7:0.196988 8:0.354286 9:0.11763 10:0.14599 11:0.157576 12:0.429206 
-512 1:0.227115 4:0.308696 5:0.00391957 6:0.12267 7:0.367335 8:0.193599 9:0.186409 10:0.0717983 11:0.154993 12:0.514674 
-146.9885482217281 1:0.326289 4:0.896667 5:0.002633 6:0.159542 7:0.397765 9:0.0275388 10:0.102535 12:0.301875 
-512 1:0.199974 4:0.202635 5:0.00544551 6:0.274721 7:0.477258 8:0.138444 9:0.125641 10:0.136917 11:0.160097 12:0.546282 
-512 1:0.0911815 4:0.114387 5:0.00272276 6:0.109308 7:0.174106 8:0.354882 9:0.187139 10:0.129032 11:0.0974901 12:0.44903 
-512 1:0.276083 4:0.40937 5:0.00493687 6:0.0730382 7:0.199864 8:0.183553 9:0.196373 10:0.0756363 11:0.19049 12:0.40928 
-512 1:0.263346 4:0.033494 5:0.00074801 6:0.0588905 7:0.23451 8:0.247438 9:0.149372 10:0.139038 11:0.0300144 12:0.492634 
-512 1:0.60413 4:0.129899 5:0.00559512 6:0.0416432 7:0.212023 8:0.296345 9:0.200644 10:0.0215496 11:0.0232598 12:0.363668 
-91.7092280867012 1:0.374619 4:0.289251 5:0.00628329 6:0.639839 7:0.612255 8:0.136576 9:0.0944712 10:0.393952 11:0.318912 12:0.430261 
-512 1:0.825282 4:0.212354 5:0.00128658 6:0.261722 7:0.338672 8:0.0792332 9:0.131535 10:0.195897 11:0.528609 12:0.402362 
-42.91664122445593 1:0.459687 4:0.697534 5:0.00613368 6:0.107798 7:0.297314 8:0.139797 9:0.0835479 10:0.0345636 11:0.186533 12:0.619193 
-204.5440094758795 1:0.903638 4:0.173469 5:0.00233379 6:0.633009 7:0.600742 8:0.0911765 9:0.0968719 10:0.202883 11:0.267647 12:0.442023 
-185.8612041564081 1:0.280469 4:0.517066 5:0.00631321 6:0.477681 7:0.483462 8:0.0806504 9:0.10711 10:0.324027 11:0.295935 12:0.441409 
-512 1:0.39256 4:0.720101 5:0.00496679 6:0.666117 7:0.563833 8:0.106743 9:0.106323 10:0.307899 11:0.284857 12:0.398505 
-512 1:0.129372 4:0.34288 5:0.00248339 6:0.120444 7:0.273632 8:0.269199 9:0.145242 10:0.249589 11:0.179598 12:0.53468 
-5.231493870205326 1:0.815241 4:0.821103 5:0.00756986 6:0.360255 7:0.406328 8:0.0266954 9:0.141815 10:0.264008 11:0.641159 12:0.667742 
-512 1:0.179015 4:0.338455 5:0.00798875 6:0.404244 7:0.491534 8:0.209548 9:0.111319 10:0.220188 11:0.195721 12:0.494444 
-512 1:0.0289807 4:0.717303 5:0.00433846 6:0.256546 7:0.371767 8:0.0810458 9:0.0538177 10:0.200378 11:0.21628 12:0.348236 
-512 1:0.278591 4:0.454477 5:0.00374005 6:0.114778 7:0.235889 8:0.327491 9:0.158158 10:0.110413 11:0.07945 12:0.434353 
-512 1:0.0221059 4:0.548675 5:0.00786907 6:0.137318 7:0.261593 8:0.189051 9:0.205425 10:0.233705 11:0.11466 12:0.416616 
-512 1:0.0996482 4:0.25528 5:0.00682185 6:0.191634 7:0.35375 8:0.352299 9:0.1693 10:0.0802263 11:0.0989635 12:0.488299 
-271.000917111871 1:0.271972 4:0.99665 5:0.00589432 6:0.205811 7:0.537016 8:0.124623 9:0.0827549 10:0.205413 11:0.110857 12:0.40024 
-176.197973076262 1:0.767662 4:0.511749 5:0.00281252 6:0.463973 7:0.397765 8:0.221825 9:0.0736504 10:0.383909 11:0.473573 12:0.508259 
-512 1:0.148515 4:0.203707 5:0.00149602 6:0.353195 7:0.384049 8:0.26313 9:0.131047 10:0.243962 11:0.30721 12:0.351283 
-512 1:0.129998 4:0.30942 5:0.00511639 6:0.135599 7:0.295393 8:0.238605 9:0.143589 10:0.0737412 11:0.139288 12:0.470384 
-512 1:0.153661 4:0.254147 5:0.00583448 6:0.252471 7:0.422484 8:0.140113 9:0.0679914 10:0.119914 11:0.230098 12:0.47771 
-217.8777049091242 1:0.296163 4:0.610306 5:0.00341093 6:0.144454 7:0.401272 8:0.087478 9:0.101656 10:0.0540704 11:0.175084 12:0.649153 
-512 1:0.0446171 4:0.212551 5:0.00412902 6:0.04556 7:0.198882 8:0.406974 9:0.181573 10:0.141498 11:0.0169697 12:0.417767 
-512 1:0.0539741 4:0.0765705 5:0.00185507 6:0.0737656 7:0.180307 8:0.339726 9:0.160649 10:0.0509056 11:0.1511 12:0.504616 
-512 1:0.233054 4:0.257949 5:0.00511639 6:0.171624 7:0.272702 8:0.199297 9:0.148884 10:0.215575 11:0.166202 12:0.438394 
-512 1:0.059116 4:0.413705 5:0.00640297 6:0.0570523 7:0.195944 8:0.254849 9:0.195673 10:0.0984518 11:0.106265 12:0.4235 
-512 1:0.305476 4:0.329909 5:0.00362037 6:0.184797 7:0.424306 8:0.290712 9:0.103947 10:0.193512 11:0.119354 12:0.547804 
-512 1:0.102559 4:0.20667 5:0.00739034 6:0.0364105 7:0.163812 8:0.382394 9:0.235458 10:0.0601641 11:0.0371078 12:0.451435 
-512 1:0.0634471 4:1 5:0.00529591 6:0.165835 7:0.30929 8:0.0463551 9:0.18469 10:0.343827 11:0.185556 12:0.50688 
-512 1:0.468939 4:0.455462 5:0.00511639 6:0.52457 7:0.529417 8:0.0875552 9:0.0799429 10:0.216472 11:0.204445 12:0.342262 
-70.88621082243375 1:0.56778 4:0.593279 5:0.00457782 6:0.43774 7:0.490576 8:0.127179 9:0.0422262 10:0.353745 11:0.212121 12:0.463828 
-196.4781250266391 1:0.244125 4:0.26047 5:0.00643289 6:0.618828 7:0.624944 8:0.0701698 9:0.0432674 10:0.272625 11:0.374513 12:0.478295 
-512 1:0.185955 4:0.104242 5:0.00152594 6:0.364482 7:0.432948 8:0.167454 9:0.122316 10:0.310512 11:0.223436 12:0.449582 
-512 1:0.0258295 4:0.319169 5:0.00415894 6:0.0363973 7:0.169216 8:0.264231 9:0.10653 10:0.0466635 11:0.0503667 12:0.378779 
-512 1:0.339158 4:0.382832 5:0.00329125 6:0.211712 7:0.290902 8:0.113892 9:0.274155 10:0.140794 11:0.303935 12:0.6083 
-348.2544134617416 1:0.94502 4:0.211764 5:0.00481719 6:0.0599781 7:0.165633 8:0.250285 9:0.220395 10:0.0538094 11:0.0580797 12:0.377344 
-512 1:0.09307 4:0.135086 5:0.00371013 6:0.0624087 7:0.183193 8:0.217385 9:0.180441 10:0.0783803 11:0.0846006 12:0.488876 
-512 1:0.234285 4:0.199816 5:0.00206451 6:0.2277 7:0.320106 8:0.188952 9:0.133314 10:0.233584 11:0.315152 12:0.498543 
-512 1:0.13348 4:0.158364 5:0.00110706 6:0.0660172 7:0.292829 8:0.0685083 9:0.113731 11:0.137117 12:0.508578 
-386.95080103295 1:0.475422 4:0.430972 5:0.00511639 6:0.279664 7:0.362873 8:0.103592 9:0.0963054 10:0.33296 11:0.165869 12:0.334777 
-512 1:0.356726 4:0.337106 5:0.00598408 6:0.107255 7:0.315937 8:0.194619 9:0.0923107 10:0.171849 11:0.0927436 12:0.474737 
-365.1603351653082 1:0.236414 4:0.679263 5:0.00490695 6:0.112244 7:0.389591 8:0.203836 9:0.056398 10:0.0839942 12:0.761029 
-512 1:0.346893 4:0.540821 5:0.00658249 6:0.568399 7:0.636878 8:0.161827 9:0.141041 10:0.300077 11:0.161946 12:0.400672 
-112.6455059626321 1:0.728382 4:0.670162 5:0.00382981 6:0.176832 7:0.366163 8:0.256995 9:0.0568851 10:0.158849 11:0.285759 12:0.423815 
-512 1:0.0141845 4:0.518656 5:0.00813835 6:0.16022 7:0.301474 8:0.188593 9:0.140888 10:0.23314 11:0.251642 12:0.626801 
-512 1:0.220067 4:0.13178 5:0.00445814 6:0.0975914 7:0.279926 8:0.147531 9:0.144501 10:0.0638326 11:0.137797 12:0.561664 
-512 1:0.182563 4:0.273871 5:0.00607384 6:0.0522416 7:0.19763 8:0.245324 9:0.144393 10:0.0689251 11:0.074395 12:0.424466 
-512 1:0.249339 4:0.466035 5:0.00457782 6:0.179028 7:0.390948 8:0.175 9:0.15771 10:0.216336 12:0.475548 
-150.7920476411491 1:0.262664 4:0.54096 5:0.00739034 6:0.0844749 7:0.206838 8:0.180364 9:0.167676 10:0.111483 11:0.0240661 12:0.432504 
-512 1:0.167151 4:0.75331 5:0.00403926 6:0.0879825 7:0.209504 8:0.137017 9:0.151641 10:0.225841 11:0.121882 12:0.428079 
-512 1:0.371554 4:0.292884 5:0.00382981 6:0.336695 7:0.384194 8:0.282032 9:0.0873977 10:0.116216 11:0.150527 12:0.421449 
-512 1:0.177907 4:0.32203 5:0.00589432 6:0.438492 7:0.556741 8:0.107885 9:0.0805949 10:0.383432 11:0.251916 12:0.513281 
-512 1:0.209357 4:0.119691 5:0.00269284 6:0.0698944 7:0.174741 8:0.341841 9:0.219674 10:0.0681589 11:0.0882817 12:0.41975 
-512 1:0.265373 4:0.253165 5:0.00445814 6:0.135128 7:0.219108 8:0.210169 9:0.153517 10:0.20785 11:0.0560863 12:0.387175 
-512 1:0.326853 4:0.124795 5:0.00406918 6:0.139239 7:0.341537 8:0.275556 9:0.160108 10:0.0946231 11:0.112346 12:0.550872 
-71.23172935018215 1:0.356728 4:0.746732 5:0.00685177 6:0.420883 7:0.603742 8:0.0536216 9:0.035607 10:0.198862 11:0.250418 12:0.384213 
-512 1:0.330205 4:0.335143 5:0.00245347 6:0.0641588 7:0.249871 8:0.266309 9:0.0994725 10:0.0411515 11:0.0888347 12:0.502932 
-512 1:0.14556 4:0.454019 5:0.00251331 6:0.0968142 7:0.146693 8:0.26383 9:0.0729975 10:0.217432 11:0.0586718 12:0.412168 
-512 1:0.00369972 4:0.137764 5:0.000478727 6:0.107115 7:0.365485 8:0.0649215 9:0.107776 11:0.173251 12:0.456022 
-512 1:0.0882411 4:0.470436 5:0.00442822 6:0.208285 7:0.402365 8:0.0782334 9:0.129876 10:0.0644751 11:0.208775 12:0.591157 
-512 1:0.145232 4:0.670429 5:0.00499671 6:0.208571 7:0.425761 8:0.0658699 9:0.196831 10:0.244286 11:0.175782 12:0.489017 
-512 1:0.00956884 4:0.672048 5:0.00858716 6:0.419707 7:0.430242 8:0.096423 9:0.0640289 10:0.190718 11:0.437438 12:0.371941 
-512 1:0.162643 4:0.34724 5:0.00463766 6:0.126902 7:0.318862 8:0.202675 9:0.159054 10:0.22777 12:0.605095 
-512 1:0.185745 4:0.409743 5:0.00379989 6:0.101944 7:0.352815 8:0.0793177 9:0.10534 10:0.0653686 11:0.141113 12:0.502895 
-512 1:0.628227 4:0.113682 5:0.00394949 6:0.128972 7:0.357238 8:0.223164 9:0.133849 10:0.124589 11:0.10566 12:0.482434 
-512 1:0.0192691 4:0.541582 5:0.00936509 6:0.157274 7:0.321324 8:0.185501 9:0.113705 10:0.141118 11:0.228476 12:0.479856 
-512 1:0.265637 4:0.176675 5:0.00338101 6:0.0853798 7:0.261104 8:0.374388 9:0.120018 10:0.0319187 11:0.120581 12:0.42407 
-512 1:0.276421 4:0.560438 5:0.00691162 6:0.0495072 7:0.133229 8:0.099839 9:0.172373 10:0.0740529 11:0.106573 12:0.437148 
-69.44062255972625 1:0.489283 4:0.904515 5:0.00610376 6:0.250641 7:0.311319 8:0.109251 9:0.0967297 10:0.180076 11:0.388733 12:0.417339 
-512 1:0.0531983 4:0.106446 5:0.00179522 6:0.0885374 7:0.170537 8:0.248292 9:0.20852 10:0.144442 11:0.136417 12:0.456886 
-512 1:0.125706 4:0.118398 5:0.00191491 6:0.201226 7:0.48537 8:0.152147 9:0.116187 10:0.150468 11:0.0812047 12:0.499732 
-512 1:0.168581 4:0.329919 5:0.00550536 6:0.134388 7:0.385201 8:0.192133 9:0.166841 10:0.182705 11:0.0986022 12:0.616438 
-512 1:0.215326 4:0.638905 5:0.00490695 6:0.114398 7:0.253216 8:0.127835 9:0.159165 10:0.0790152 11:0.255858 12:0.457891 
-512 1:0.108544 4:0.567314 5:0.00266292 6:0.114196 7:0.335354 8:0.259414 9:0.275619 10:0.256551 11:0.0692278 12:0.621216 
-391.0937038997887 1:0.394023 4:0.35978 5:0.00448806 6:0.211805 7:0.361719 8:0.0788553 9:0.143999 10:0.243703 11:0.263044 12:0.482973 
-512 1:0.119167 4:0.0948698 5:0.00329125 6:0.0776989 7:0.165784 8:0.354182 9:0.220792 10:0.0982911 11:0.0289341 12:0.327961 
-512 1:0.521872 4:0.255992 5:0.0016157 6:0.094819 7:0.207476 8:0.267901 9:0.152484 10:0.0473116 11:0.0510662 12:0.279083 
-512 1:0.124559 4:0.156318 5:0.00260308 6:0.0530039 7:0.240652 8:0.147971 9:0.191605 10:0.0548769 11:0.039488 12:0.432021 
-495.1050730770162 1:0.330436 4:0.253978 5:0.00598408 6:0.0607906 7:0.304431 8:0.252097 9:0.174378 10:0.0779108 11:0.0840938 12:0.602508 
-512 1:0.0607797 4:0.659752 5:0.00487703 6:0.17368 7:0.353036 8:0.132798 9:0.165344 10:0.164165 11:0.221492 12:0.501588 
-512 1:0.245311 4:0.0279623 5:0.000568488 6:0.24722 7:0.27674 8:0.221209 9:0.114249 10:0.167114 11:0.196774 12:0.384473 
-512 1:0.0156612 4:0.52228 5:0.00891628 6:0.215041 7:0.373658 8:0.144522 9:0.119961 10:0.160793 11:0.173554 12:0.489771 
-512 1:0.510247 4:0.213176 5:0.0045479 6:0.0958528 7:0.273173 8:0.231884 9:0.107786 10:0.0859969 11:0.0618811 12:0.519918 
-512 1:0.224642 4:0.131523 5:0.00385973 6:0.161405 7:0.428257 8:0.186721 9:0.138081 10:0.115413 11:0.101923 12:0.570967 
-512 1:0.373631 4:0.0733119 5:0.00311172 6:0.091999 7:0.224932 8:0.357606 9:0.199867 10:0.0515754 11:0.0556684 12:0.396331 
-512 1:0.159972 4:0.261755 5:0.00179522 6:0.389047 7:0.581915 8:0.0706553 9:0.105566 10:0.174689 11:0.23569 12:0.542897 
-512 1:0.107598 4:0.414086 5:0.00646281 6:0.0696372 7:0.207496 8:0.252739 9:0.188808 10:0.136691 11:0.063231 12:0.539406 
-512 1:0.0792285 4:0.253204 5:0.00487703 6:0.0424031 7:0.385013 8:0.153878 9:0.153272 10:0.0158521 11:0.0513303 12:0.548256 
-9.888425853123294 1:0.651042 4:1 5:0.00550536 6:0.503299 7:0.604516 8:0.0446043 9:0.0444287 10:0.496261 11:0.416612 12:0.499383 
-512 1:0.16731 4:0.0582922 5:0.00071809 6:0.0969858 7:0.346632 8:0.195584 9:0.1039 10:0.145069 12:0.367021 
-283.8870740507782 1:0.611962 4:0.881068 5:0.00691162 6:0.0517992 7:0.176505 8:0.156764 9:0.135327 10:0.0387584 11:0.125503 12:0.383878 
-64.7530609324655 1:0.145294 4:0.998554 5:0.0137634 
-512 1:0.100164 4:0.969825 5:0.00765963 6:0.0686324 7:0.233862 8:0.186935 9:0.175854 10:0.115545 11:0.0415715 12:0.35712 
-512 1:0.634471 4:0.123328 5:0.00451798 6:0.150481 7:0.369963 8:0.218382 9:0.126888 10:0.134982 11:0.100165 12:0.480485 
-512 1:0.181714 4:0.67878 5:0.00697146 6:0.349795 7:0.514596 8:0.0239614 9:0.143202 10:0.296212 11:0.159859 12:0.530737 
-121.84974469717 1:0.489965 4:0.546247 5:0.00382981 6:0.240418 7:0.45883 8:0.384225 9:0.127571 10:0.0863603 11:0.233035 12:0.491297 
-422.8705533923147 1:0.422936 4:0.480128 5:0.0061636 6:0.306472 7:0.431911 8:0.0383604 9:0.127364 10:0.379371 11:0.281516 12:0.454912 
-512 1:0.181132 4:0.297669 5:0.00535575 6:0.0907131 7:0.311744 8:0.150885 9:0.154845 10:0.0508704 11:0.0915125 12:0.593595 
-512 1:0.0762183 4:0.611275 5:0.00227395 6:0.0538386 7:0.244939 8:0.261053 9:0.216687 11:0.174163 12:0.492372 
-512 1:0.382878 4:0.0381321 5:0.00179522 6:0.291733 7:0.427559 8:0.170882 9:0.107982 10:0.190803 11:0.19859 12:0.485875 
-512 1:0.139307 4:0.539048 5:0.00385973 6:0.113017 7:0.299558 8:0.136828 9:0.124931 10:0.12686 11:0.136928 12:0.481147 
-512 1:0.203284 4:0.596581 5:0.00338101 6:0.17806 7:0.377703 8:0.129391 9:0.114562 10:0.426545 11:0.230198 12:0.426758 
-85.79444856236921 1:0.463189 4:0.609703 5:0.0029322 6:0.209311 7:0.338385 8:0.0507157 9:0.0168387 10:0.188085 11:0.0676706 12:0.660077 
-512 1:0.0366275 4:0.339325 5:0.00451798 6:0.137463 7:0.208071 8:0.277198 9:0.184071 10:0.0913797 11:0.221921 12:0.505747 
-512 1:0.26253 4:0.285179 5:0.00484711 6:0.175936 7:0.372162 8:0.246694 9:0.120452 10:0.143513 11:0.116176 12:0.499342 
-77.36677298036865 1:0.542016 4:0.956753 5:0.00768955 6:0.438409 7:0.555397 8:0.183704 9:0.0304967 10:0.416342 11:0.531089 12:0.510481 
-153.383246371688 1:0.210541 4:0.264589 5:0.00287236 6:0.0870227 7:0.221141 8:0.564149 9:0.209786 10:0.306858 11:0.03011 12:0.582188 
-512 1:0.225799 4:0.135297 5:0.00619353 6:0.155226 7:0.281575 8:0.22963 9:0.154299 10:0.175729 11:0.160494 12:0.457674 
-101.969012702804 1:0.0490424 4:0.995837 5:0.014302 6:0.12776 7:0.354517 8:0.171745 9:0.12545 10:0.127387 11:0.206245 12:0.581964 
-512 1:0.181596 4:0.257408 5:0.00604392 6:0.127804 7:0.274699 8:0.242414 9:0.171471 10:0.117264 11:0.112506 12:0.428685 
-512 1:0.0119603 4:0.511396 5:0.00858716 6:0.198364 7:0.376792 8:0.161611 9:0.160975 10:0.199785 11:0.196036 12:0.348524 
-434.0060744562041 1:0.580017 4:0.358343 5:0.00541559 6:0.0853564 7:0.193783 8:0.146746 9:0.173236 10:0.0806256 11:0.10878 12:0.369764 
-512 1:0.138526 4:0.287306 5:0.00724074 6:0.175945 7:0.337903 8:0.196436 9:0.195662 10:0.20641 11:0.144158 12:0.548026 
-512 1:0.218173 4:0.284006 5:0.0084974 6:0.0958848 7:0.29188 8:0.157381 9:0.093507 10:0.122877 11:0.121576 12:0.5702 
-512 1:0.0835177 4:0.804104 5:0.00466758 6:0.127912 7:0.273082 8:0.168995 9:0.11222 10:0.156684 11:0.112746 12:0.539063 
-512 1:0.295682 4:0.146701 5:0.00281252 6:0.191805 7:0.368201 8:0.103119 9:0.205425 10:0.14341 11:0.189189 12:0.554464 
-512 1:0.15492 4:0.460432 5:0.00305188 6:0.131881 7:0.453322 8:0.11055 9:0.146819 10:0.136662 11:0.196677 12:0.614243 
-512 1:0.438437 4:0.231215 5:0.002633 6:0.343653 7:0.313934 8:0.129055 9:0.0856976 10:0.239307 11:0.200899 12:0.538128 
-512 1:0.0708301 4:0.3516 5:0.00224403 6:0.209739 7:0.349495 8:0.419048 9:0.139132 10:0.282561 11:0.0508309 12:0.555598 
-415.1000290122823 1:0.14838 4:0.579451 5:0.00828795 6:0.223168 7:0.420431 8:0.172342 9:0.131608 10:0.08522 11:0.252953 12:0.557031 
-512 1:0.29637 4:0.196516 5:0.00382981 6:0.104816 7:0.200916 8:0.380368 9:0.218903 10:0.0470213 11:0.169176 12:0.436318 
-512 1:0.108679 4:0.41904 5:0.00254323 6:0.11046 7:0.284485 8:0.200647 9:0.133238 10:0.148825 12:0.491165 
-512 1:0.219585 4:0.231215 5:0.00335109 6:0.224487 7:0.300842 8:0.118823 9:0.129627 10:0.209842 11:0.203845 12:0.451308 
-512 1:0.125766 4:0.200723 5:0.00691162 6:0.109448 7:0.240859 8:0.281572 9:0.163004 10:0.0714012 11:0.0867011 12:0.382176 
-512 1:0.212345 4:0.12158 5:0.0045479 6:0.162183 7:0.380606 8:0.193907 9:0.146522 10:0.123987 11:0.124905 12:0.556208 
-512 1:0.0855635 4:0.729559 5:0.00888636 6:0.0947331 7:0.307894 8:0.303426 9:0.154474 10:0.200052 11:0.026991 12:0.553561 
-512 1:0.355534 4:0.695014 5:0.00640297 6:0.117634 7:0.228212 8:0.400431 9:0.124088 10:0.0990029 11:0.1781 12:0.375605 
-29.21850052147905 1:0.451431 4:0.254437 5:0.00374005 6:0.0876603 7:0.192034 8:0.351654 9:0.144556 10:0.103504 11:0.223436 12:0.397204 
-512 1:0.157042 4:0.696807 5:0.00694154 6:0.176891 7:0.386275 8:0.19761 9:0.213234 10:0.152679 11:0.263673 12:0.598601 
-512 1:0.307446 4:0.643261 5:0.00427862 6:0.192749 7:0.345754 8:0.2211 9:0.0734096 10:0.22777 11:0.245846 12:0.451085 
-512 1:0.203865 4:0.136809 5:0.0055652 6:0.111785 7:0.228054 8:0.31338 9:0.130571 10:0.151922 11:0.172178 12:0.397387 
-51.2986331218214 1:0.270827 4:0.308796 5:0.00640297 6:0.137932 7:0.332968 8:0.190678 9:0.102877 10:0.206252 11:0.127212 12:0.627612 
-512 1:0.195473 4:0.383027 5:0.00251331 6:0.316835 7:0.278673 8:0.185629 9:0.0739591 10:0.458951 11:0.247686 12:0.454456 
-512 1:0.026358 4:0.719307 5:0.0071809 6:0.258019 7:0.370087 8:0.246521 9:0.19644 10:0.274275 11:0.230255 12:0.385427 
-512 1:0.277586 4:0.216329 5:0.00487703 6:0.23901 7:0.384559 8:0.164675 9:0.185896 10:0.0678572 11:0.161133 12:0.57818 
-512 1:0.0219076 4:0.75889 5:0.00287236 6:0.230278 7:0.228327 8:0.128831 9:0.0213873 10:0.318524 11:0.171901 12:0.351927 
-512 1:0.337978 4:0.522284 5:0.0040991 6:0.163412 7:0.338651 8:0.281108 9:0.134815 10:0.038612 11:0.166705 12:0.333608 
-512 1:0.147268 4:0.163033 5:0.00541559 6:0.13014 7:0.2094 8:0.434693 9:0.149304 10:0.09265 11:0.0900025 12:0.375227 
-512 1:0.231631 4:0.190038 5:0.00400934 6:0.116328 7:0.276272 8:0.281418 9:0.128476 10:0.130459 11:0.125167 12:0.501359 
-141.672642877633 1:0.0819332 4:0.799334 5:0.00855724 6:0.120401 7:0.335775 8:0.0460111 9:0.0763832 10:0.113758 11:0.122786 12:0.569538 
-15.71209716371076 1:0.750342 4:0.436625 5:0.00296212 6:0.227917 7:0.37525 8:0.215965 9:0.0478033 10:0.311474 11:0.0960549 12:0.675 
-512 1:0.300432 4:0.609453 5:0.00368021 6:0.312316 7:0.549201 8:0.162092 9:0.147999 10:0.0500946 11:0.378491 12:0.622604 
-512 1:0.0245158 4:0.111171 5:0.00544551 6:0.165423 7:0.299455 8:0.266722 9:0.172005 10:0.133157 11:0.143725 12:0.457467 
-462.951188716978 1:0.219163 4:0.584096 5:0.00379989 6:0.414394 7:0.580652 8:0.0752656 9:0.0999589 10:0.279131 11:0.200855 12:0.529261 
-512 1:0.288478 4:0.289609 5:0.0043983 6:0.196634 7:0.331427 8:0.259516 9:0.102321 10:0.120306 11:0.108211 12:0.427022 
-512 1:0.111316 4:0.535621 5:0.0046975 6:0.0925028 7:0.262632 8:0.223928 9:0.139404 10:0.0346026 11:0.224092 12:0.598013 
-512 1:0.0177964 4:0.734217 5:0.00547544 6:0.389937 7:0.473831 8:0.19761 9:0.142156 10:0.407143 11:0.307618 12:0.394645 
-512 1:0.127123 4:0.441893 5:0.0055652 6:0.0969094 7:0.244489 8:0.273601 9:0.201149 10:0.120795 11:0.104305 12:0.514444 
-512 1:0.0533395 4:0.997394 5:0.00759978 
-51.09004121038522 1:0.418516 4:0.442063 5:0.00365029 6:0.383946 7:0.389676 8:0.148325 9:0.226537 10:0.293377 11:0.316659 12:0.448253 
-512 1:0.164221 4:0.205599 5:0.00170546 6:0.177179 7:0.317086 8:0.175472 9:0.184491 10:0.0723064 11:0.195111 12:0.426678 
-512 1:0.345054 4:0.200154 5:0.00382981 6:0.174317 7:0.395694 8:0.180739 9:0.120018 10:0.175553 11:0.137807 12:0.521673 
-248.9835533028272 1:0.63695 4:0.763425 5:0.00356053 6:0.389478 7:0.426357 8:0.104863 9:0.156674 11:0.209879 12:0.47765 
-512 1:0.0173703 4:0.0837849 5:0.00281252 6:0.193825 7:0.424282 8:0.119698 9:0.114259 10:0.120227 11:0.169697 12:0.602788 
-25.56496711334652 1:0.744318 4:0.755749 5:0.00511639 6:0.908339 7:0.748426 8:0.0362573 9:0.0240764 10:0.672322 11:0.725678 12:0.321077 
-512 1:0.0368138 4:0.0639106 5:0.000448806 6:0.179934 7:0.340642 8:0.163373 9:0.108486 10:0.121177 11:0.21799 12:0.519202 
-512 1:0.243222 4:0.243165 5:0.00475735 6:0.0556743 7:0.179035 8:0.2778 9:0.121583 10:0.0780496 11:0.0505462 12:0.44771 
-512 1:0.130436 4:0.613001 5:0.00637305 6:0.169471 7:0.429267 8:0.118321 9:0.117855 10:0.117015 11:0.0947259 12:0.450161 
-76.48809313242346 1:0.958104 4:0.543636 5:0.00481719 6:0.13736 7:0.306212 8:0.221676 9:0.073601 11:0.110919 12:0.476493 
-512 1:0.182807 4:0.154273 5:0.00661241 6:0.112406 7:0.269661 8:0.279634 9:0.216636 10:0.12243 11:0.101053 12:0.451202 
-169.755836649738 1:0.204341 4:0.149211 5:0.00631321 6:0.165975 7:0.462812 8:0.112164 9:0.0921217 10:0.13136 11:0.141784 12:0.557279 
-291.3040104895199 1:0.165219 4:0.637634 5:0.00673209 6:0.0321009 7:0.223556 8:0.116541 9:0.13156 10:0.0576276 11:0.062201 12:0.595246 
-512 1:0.0965254 4:0.80312 5:0.00631321 6:0.155006 7:0.254309 8:0.125095 9:0.0934515 10:0.193303 11:0.0834575 12:0.366617 
-512 1:0.160076 4:0.352494 5:0.00691162 6:0.270723 7:0.380795 8:0.151143 9:0.108729 10:0.124562 11:0.201671 12:0.574635 
-512 1:0.149822 4:0.302991 5:0.00768955 6:0.327899 7:0.412781 8:0.253559 9:0.139232 10:0.204949 11:0.195188 12:0.46278 
-512 1:0.37983 4:0.153137 5:0.00347077 6:0.162726 7:0.241675 8:0.262434 9:0.217834 10:0.229799 11:0.160494 12:0.40198 
-512 1:0.36604 4:0.84915 5:0.00721082 6:0.398921 7:0.507429 8:0.173832 9:0.0192386 10:0.107446 11:0.309261 12:0.407599 
-512 1:0.10839 4:0.138561 5:0.00260308 6:0.170303 7:0.296109 8:0.341888 9:0.174637 10:0.178811 11:0.193001 12:0.449076 
-235.2212656172091 1:0.348984 4:0.919734 5:0.00544551 6:0.216882 7:0.302647 8:0.0414716 9:0.179002 10:0.256337 11:0.387352 12:0.356375 
-512 1:0.151835 4:0.303385 5:0.00652265 6:0.0760426 7:0.184591 8:0.241446 9:0.194687 10:0.0568528 11:0.153412 12:0.521577 
-512 1:0.225778 4:0.849379 5:0.00694154 6:0.223773 7:0.357699 8:0.150485 9:0.1399 10:0.111619 11:0.240953 12:0.5175 
-512 1:0.186295 4:0.233131 5:0.00646281 6:0.165145 7:0.311413 8:0.232528 9:0.175194 10:0.243229 11:0.107399 12:0.447729 
-512 1:0.0529794 4:0.834996 5:0.00622345 6:0.181607 7:0.288803 8:0.164894 9:0.131395 10:0.285379 11:0.264023 12:0.455304 
-512 1:0.0392724 4:0.424777 5:0.00574472 6:0.265875 7:0.413827 8:0.145668 9:0.126958 10:0.180076 11:0.145775 12:0.507818 
-512 1:0.0793529 4:0.289743 5:0.0046975 6:0.0544654 7:0.15218 8:0.364929 9:0.186795 10:0.075188 11:0.0811549 12:0.447898 
-512 1:0.785629 4:0.411138 5:0.00359045 6:0.177698 7:0.33342 8:0.140271 9:0.0558876 10:0.173404 11:0.149733 12:0.43125 
-512 1:0.355221 4:0.0795487 5:0.0045479 6:0.0550228 7:0.199772 8:0.399213 9:0.201766 10:0.0712847 11:0.0473488 12:0.403718 
-512 1:0.157454 4:0.814652 5:0.00526599 6:0.188188 7:0.348425 8:0.151914 9:0.138706 10:0.281696 11:0.10135 12:0.454989 
-512 1:0.394533 4:0.0712769 5:0.00254323 6:0.0409198 7:0.169515 8:0.395895 9:0.187779 10:0.061176 11:0.0565979 12:0.401877 
-512 1:0.0117164 4:0.61539 5:0.00326132 6:0.0887987 7:0.221062 8:0.13829 9:0.137745 10:0.0569849 11:0.184522 12:0.492057 
-512 1:0.181021 4:0.173209 5:0.0029322 6:0.0280883 7:0.160928 8:0.364063 9:0.207908 10:0.0360046 12:0.31129 
-512 1:0.088047 4:0.424797 5:0.00580456 6:0.049655 7:0.240509 8:0.162209 9:0.137634 10:0.0668413 11:0.0961945 12:0.559028 
-512 1:0.161274 4:0.349069 5:0.00535575 6:0.208002 7:0.515754 8:0.0803109 9:0.0746617 10:0.198561 11:0.128592 12:0.506614 
-512 1:0.201959 4:0.387044 5:0.00448806 6:0.0525512 7:0.349149 8:0.275556 9:0.18298 10:0.0524067 11:0.0565657 12:0.60213 
-512 1:0.0779064 4:0.0932695 5:0.00275268 6:0.11209 7:0.316228 8:0.254185 9:0.16035 10:0.0942675 11:0.113054 12:0.662782 
-183.0480520324967 1:0.527414 4:0.594111 5:0.00700138 6:0.471949 7:0.466125 8:0.188037 9:0.131801 10:0.568217 11:0.278778 12:0.304924 
-89.35946310963801 1:0.459824 4:0.41825 5:0.00272276 6:0.0928167 7:0.312444 8:0.224773 9:0.223888 10:0.046311 11:0.0499863 12:0.692732 
-408.1300415604793 1:0.2643 4:0.241652 5:0.00484711 6:0.129009 7:0.179814 8:0.344958 9:0.179981 10:0.182759 11:0.11507 12:0.314765 
-512 1:0.0258442 4:0.286647 5:0.00505655 6:0.0847943 7:0.277067 8:0.34969 9:0.199699 10:0.103749 11:0.0746552 12:0.525085 
-512 1:0.544781 4:0.107728 5:0.00197475 6:0.200448 7:0.471873 8:0.202064 9:0.120761 10:0.0499585 11:0.16177 12:0.597007 
-512 1:0.296325 4:0.503194 5:0.0040991 6:0.215485 7:0.389076 8:0.0601942 9:0.129907 10:0.260443 11:0.160635 12:0.454773 
-512 1:0.089237 4:0.220976 5:0.00400934 6:0.176186 7:0.29216 8:0.190455 9:0.0993694 10:0.201807 11:0.0363038 12:0.475226 
-512 1:0.155072 4:0.304945 5:0.00475735 6:0.309015 7:0.424873 8:0.221146 9:0.131116 10:0.29291 11:0.274001 12:0.535288 
-512 1:0.220033 4:0.414241 5:0.00281252 6:0.188007 7:0.352223 8:0.143768 9:0.167069 10:0.26659 11:0.0479578 12:0.402542 
-512 1:0.188986 4:0.0907997 5:0.00649273 6:0.0498018 7:0.154367 8:0.36132 9:0.201119 10:0.061307 11:0.0850788 12:0.402796 
-512 1:0.164608 4:0.586781 5:0.0040991 6:0.366984 7:0.563172 8:0.175389 9:0.0582328 10:0.0867267 11:0.234023 12:0.529926 
-461.8565956731388 1:0.588606 4:0.0351264 5:0.00137634 6:0.333137 7:0.355287 8:0.211345 9:0.116221 10:0.253101 11:0.290812 12:0.459839 
-215.5312764351287 1:0.03888 4:0.940132 5:0.0129855 6:0.127896 7:0.22709 8:0.107127 9:0.118562 10:0.132432 11:0.0952942 12:0.507262 
-512 1:0.306171 4:0.0080589 5:0.000239363 6:0.023292 7:0.164468 8:0.319273 9:0.202657 10:0.0232169 11:0.0125297 12:0.445614 
-198.0991874400496 1:0.22119 4:0.183151 5:0.00227395 6:0.445688 7:0.444281 8:0.118377 9:0.170316 10:0.0975589 11:0.552831 12:0.555346 
-512 1:0.0537768 4:0.117717 5:0.00978397 6:0.0534963 7:0.252256 8:0.285023 9:0.159065 10:0.0599739 11:0.0566417 12:0.510066 
-512 1:0.259226 4:0.156251 5:0.00535575 6:0.16628 7:0.416767 8:0.181712 9:0.123077 10:0.143765 11:0.0872855 12:0.564807 
-512 1:0.110499 4:0.0764625 5:0.00242355 6:0.0720887 7:0.246235 8:0.285331 9:0.18684 10:0.0979798 11:0.116331 12:0.398872 
-296.3005830161581 1:0.447257 4:0.588709 5:0.00314164 6:0.277026 7:0.324376 8:0.274539 9:0.151921 10:0.282822 11:0.671587 12:0.393128 
-512 1:0.118024 4:0.134723 5:0.00374005 6:0.0592847 7:0.207436 8:0.304734 9:0.205332 10:0.0443193 11:0.095673 12:0.453373 
-512 1:0.168827 4:0.0574894 5:0.00158578 6:0.120617 7:0.237635 8:0.31 9:0.169526 10:0.123984 11:0.0851604 12:0.444563 
-512 1:0.306613 4:0.808471 5:0.0045479 6:0.659759 7:0.727021 8:0.0871705 9:0.0144712 10:0.323282 11:0.348938 12:0.385855 
-504.9826645065111 1:0.145627 4:0.143363 5:0.00385973 6:0.203573 7:0.537116 8:0.0738645 9:0.223786 10:0.11414 11:0.147837 12:0.662042 
-512 1:0.140208 4:0.437503 5:0.00272276 6:0.140201 7:0.424785 8:0.078357 9:0.130081 10:0.0484327 11:0.209105 12:0.622388 
-512 1:0.0591101 4:0.415429 5:0.00487703 6:0.0461603 7:0.165959 8:0.397973 9:0.166908 10:0.0776805 11:0.0838452 12:0.48038 
-512 1:0.127584 4:0.144989 5:0.00350069 6:0.0906379 7:0.207866 8:0.215831 9:0.139908 10:0.152464 11:0.0822816 12:0.517178 
-512 1:0.259383 4:0.194504 5:0.00481719 6:0.154457 7:0.406914 8:0.210169 9:0.122947 10:0.18558 11:0.106831 12:0.501008 
-512 1:0.258861 4:0.258138 5:0.00496679 6:0.0919684 7:0.278353 8:0.231056 9:0.157693 10:0.0793424 11:0.102767 12:0.522051 
-512 1:0.0721452 4:0.396226 5:0.00622345 6:0.0778463 7:0.291274 8:0.282532 9:0.171978 10:0.0388075 11:0.0837745 12:0.515536 
-512 1:0.163933 4:0.12865 5:0.00365029 6:0.067722 7:0.214084 8:0.412456 9:0.148599 10:0.0976366 11:0.0468378 12:0.510269 
-510.7418246006776 1:0.00511615 4:0.664131 5:0.00305188 6:0.248371 7:0.243599 8:0.265525 9:0.0528958 10:0.393892 11:0.283434 12:0.345553 
-512 1:0.336411 4:0.229702 5:0.00353061 6:0.233949 7:0.347402 8:0.24031 9:0.148937 10:0.198048 11:0.0855062 12:0.580475 
-512 1:0.481497 4:0.646428 5:0.00344085 6:0.0884704 7:0.277699 8:0.0459259 9:0.137235 11:0.0612795 12:0.394582 
-512 1:0.361863 4:0.242077 5:0.00287236 6:0.381443 7:0.426603 8:0.227333 9:0.0686176 10:0.178838 11:0.303333 12:0.409346 
-512 1:0.0744039 4:0.51331 5:0.00544551 6:0.210679 7:0.449437 8:0.162243 9:0.107736 10:0.143261 11:0.216483 12:0.501313 
-512 1:0.145246 4:0.539168 5:0.00272276 6:0.0663835 7:0.301806 8:0.241245 9:0.0800984 10:0.0596457 11:0.128758 12:0.514988 
-512 1:0.18272 4:0.231112 5:0.00700138 6:0.0564336 7:0.167355 8:0.212946 9:0.184914 10:0.050624 11:0.0874264 12:0.446342 
-512 1:0.337762 4:0.285919 5:0.00185507 6:0.154229 7:0.241414 8:0.261446 9:0.173611 10:0.0461715 11:0.199343 12:0.408553 
-512 1:0.152464 4:0.523919 5:0.00230387 6:0.13675 7:0.36853 8:0.0552339 9:0.165049 11:0.0736991 12:0.618125 
-512 1:0.386383 4:0.520991 5:0.00559512 6:0.0946149 7:0.253056 8:0.34349 9:0.144458 10:0.141542 11:0.0305549 12:0.435626 
-43.39621803836105 1:0.0408774 4:0.162654 5:0.0108611 6:0.116748 7:0.373539 8:0.251111 9:0.187903 10:0.092664 11:0.105019 12:0.534664 
-512 1:0.0803867 4:0.219947 5:0.00466758 6:0.0899248 7:0.320754 8:0.221429 9:0.282467 10:0.115255 11:0.124402 12:0.583372 
-512 1:0.46686 4:0.422036 5:0.00661241 6:0.0390219 7:0.157491 8:0.173096 9:0.193314 10:0.0778119 11:0.0209968 12:0.393786 
-512 1:0.0448983 4:0.469228 5:0.0013165 6:0.0468322 7:0.248774 8:0.170447 9:0.0848878 11:0.113714 12:0.664598 
-512 1:0.0272866 4:0.345031 5:0.00792891 6:0.275753 7:0.329774 8:0.150629 9:0.121458 10:0.22611 11:0.18663 12:0.488102 
-512 1:0.217474 4:0.227081 5:0.00511639 6:0.311759 7:0.384729 8:0.109832 9:0.113046 10:0.217239 11:0.205169 12:0.498257 
-512 1:0.0657937 4:0.807873 5:0.00562504 6:0.0485618 7:0.27951 8:0.0705548 9:0.0937026 10:0.0436101 11:0.047071 12:0.634011 
-147.8453396119121 1:0.706117 4:0.889001 5:0.0102029 6:0.0473183 7:0.214896 8:0.34355 9:0.185357 10:0.0265436 11:0.114601 12:0.430877 
-512 1:0.028655 4:0.231901 5:0.00727066 6:0.133085 7:0.335047 8:0.269135 9:0.120897 10:0.176139 11:0.0633723 12:0.505694 
-505.2125741854679 1:0.12175 4:0.501771 5:0.00433846 6:0.523557 7:0.597557 9:0.0376847 10:0.526165 11:0.302892 12:0.524893 
-512 1:0.0710619 4:0.511701 5:0.00858716 6:0.449622 7:0.45058 8:0.102905 9:0.0683329 10:0.290768 11:0.431535 12:0.425374 
-15.42987572707447 1:0.801075 4:1 5:0.0128957 6:0.726945 7:0.761488 8:0.0764842 9:0.0507887 10:0.236375 11:0.382701 12:0.423608 
-139.3733589569289 1:0.222972 4:0.606083 5:0.00780923 6:0.11589 7:0.0916975 8:0.229453 9:0.101577 10:0.401838 11:0.0255134 12:0.408658 
-512 1:0.00154205 4:0.539958 5:0.00736042 6:0.139439 7:0.4485 8:0.0723032 9:0.108028 10:0.111727 11:0.0723562 12:0.527677 
-512 1:0.0689189 4:0.602454 5:0.00185507 6:0.129416 7:0.409093 8:0.078481 9:0.104229 10:0.194037 12:0.79584 
-512 1:0.0129266 4:0.289308 5:0.00371013 6:0.0422394 7:0.239765 8:0.287481 9:0.146356 10:0.0947694 11:0.0511451 12:0.56945 
-512 1:0.0021848 4:0.869229 5:0.00379989 6:0.0461993 7:0.420212 8:0.223928 9:0.167284 12:0.466216 
-512 1:0.287648 4:0.0769804 5:0.00287236 6:0.124758 7:0.29017 8:0.378317 9:0.183927 10:0.0835137 11:0.126198 12:0.524969 
-87.23185195203092 1:0.400012 4:0.324377 5:0.00673209 6:0.613538 7:0.727357 8:0.107153 9:0.0988252 10:0.191336 11:0.174748 12:0.533889 
-432.1862853691688 1:0.0892911 4:0.498335 5:0.00472743 6:0.0499088 7:0.431811 8:0.0517745 9:0.292234 10:0.0960059 11:0.0690833 12:0.77571 
-512 1:0.00181345 4:0.834586 5:0.00302196 6:0.0555894 7:0.238875 8:0.269565 9:0.268504 11:0.0899209 12:0.560976 
-512 1:0.227384 4:0.878315 5:0.00376997 6:0.235235 7:0.416053 8:0.0570115 9:0.094645 10:0.140956 11:0.228213 12:0.504444 
