svm_type c_svc
kernel_type rbf
gamma 1
nr_class 2
total_sv 129
rho -7.25104
label -1 1
probA -1.22772
probB -0.238819
nr_sv 72 57
SV
176.2098354433036 1:0.526959 4:0.299378 5:0.0222611 6:0.288097 7:0.443519 8:0.196441 9:0.391389 10:0.0551601 11:0.160996 12:0.453832 
271.5884969300935 1:0.624841 4:0.515695 5:0.0103355 6:0.180462 7:0.374591 8:0.268135 9:0.217362 10:0.100389 11:0.195337 12:0.426052 
295.4084303993537 1:0.597899 4:0.485522 5:0.0147877 6:0.15573 7:0.427352 8:0.414948 9:0.199677 10:0.133162 11:0.129553 12:0.589978 
512 1:0.0201215 4:0.371207 5:0.0494514 6:0.0389849 7:0.113725 8:0.37156 9:0.388992 10:0.0772836 11:0.0751895 12:0.26899 
278.8455004118302 1:0.224099 4:0.850166 5:0.0275083 6:0.147387 7:0.242924 8:0.280488 9:0.218408 10:0.252033 11:0.122602 12:0.129376 
378.5625239046572 1:0.618671 4:0.453493 5:0.020353 6:0.098134 7:0.187344 8:0.121336 9:0.305833 10:0.181712 11:0.0883939 12:0.503635 
9.066555657238684 1:0.287018 4:0.0648228 5:0.00524726 6:0.0738546 7:0.150887 8:0.638889 9:0.197332 10:0.0512566 11:0.0498677 12:0.295377 
162.6608850549577 1:0.543409 4:0.97795 5:0.0162188 6:0.0658856 7:0.273421 8:0.108833 9:0.391732 10:0.12224 12:0.498037 
145.1360898681995 1:0.10576 4:0.42646 5:0.0143107 6:0.119661 7:0.239389 8:0.322933 9:0.20833 10:0.302262 11:0.235257 12:0.596566 
170.4505658908354 1:0.944799 4:0.473057 5:0.0100175 6:0.119528 7:0.223578 8:0.169118 9:0.297655 10:0.189951 11:0.092402 12:0.218616 
228.2699155572811 1:0.140961 4:0.533054 5:0.0225791 6:0.181962 7:0.411331 8:0.257143 9:0.444503 10:0.336957 11:0.187329 12:0.371874 
343.0384593652012 1:0.0154313 4:0.345113 5:0.0136747 6:0.0738058 7:0.257051 8:0.0912698 9:0.475262 11:0.0498677 12:0.649005 
104.7294598010145 1:0.470927 4:0.384113 5:0.0143107 6:0.147132 7:0.251998 8:0.14557 9:0.157993 10:0.218003 11:0.0530239 12:0.272832 
60.09825039899111 1:0.486227 4:0.0527731 5:0.0139927 6:0.0682656 7:0.189956 8:0.395962 9:0.339377 10:0.156482 11:0.0721148 12:0.366396 
512 1:0.576978 4:0.117181 5:0.0171728 6:0.0694273 7:0.173706 8:0.393923 9:0.377994 10:0.142726 11:0.0833149 12:0.269809 
180.2466501369063 1:0.117115 4:0.137574 5:0.0181269 6:0.108145 7:0.361666 8:0.295353 9:0.273626 10:0.15797 11:0.0768447 12:0.583984 
158.9845065069001 1:0.221077 4:0.59124 5:0.0108125 6:0.296765 7:0.456061 8:0.0980114 9:0.458323 10:0.330256 11:0.107102 12:0.388385 
31.7372740515839 1:0.199724 4:0.575301 5:0.00779138 6:0.0264541 7:0.177384 8:0.787072 9:0.187821 12:0.371966 
150.2248354733619 1:0.00622703 4:0.566428 5:0.0174909 6:0.0828595 7:0.137758 8:0.351443 9:0.391527 10:0.197368 11:0.128014 12:0.430406 
286.2220858571499 1:0.0899616 4:0.0974755 5:0.021307 6:0.104627 7:0.351426 8:0.344655 9:0.384975 10:0.125812 11:0.122403 12:0.544157 
510.5363814054716 1:0.119353 4:0.551534 5:0.0190809 6:0.116398 7:0.464199 8:0.26176 9:0.31776 10:0.0588012 11:0.0572079 12:0.600844 
191.1747543377155 1:0.0087149 4:0.635025 5:0.0139927 6:0.0825517 7:0.10663 8:0.245261 9:0.422574 10:0.183649 11:0.268009 12:0.523033 
120.0147437074994 1:0.502073 4:0.378616 5:0.0111305 6:0.0618042 7:0.250365 8:0.183511 9:0.511818 10:0.137411 12:0.688266 
64.08973778320431 1:0.309818 4:0.366559 5:0.00651932 6:0.14048 7:0.241901 8:0.397695 9:0.355265 10:0.335014 11:0.325937 12:0.482714 
38.83497725323042 1:0.335556 4:0.0472 5:0.0152647 6:0.194509 7:0.310699 8:0.383198 9:0.23598 10:0.184459 11:0.212694 12:0.349145 
284.8649261008871 1:0.480011 4:0.21455 5:0.00699634 6:0.276699 7:0.377654 8:0.109524 9:0.151853 10:0.30754 11:0.0598413 12:0.411924 
172.1892236209461 1:0.118162 4:0.518692 5:0.0147877 6:0.12791 7:0.262272 8:0.253211 9:0.355467 10:0.213303 11:0.0691743 12:0.330993 
372.4600852118518 1:0.166367 4:0.17666 5:0.0182859 6:0.143849 7:0.249556 8:0.302164 9:0.51119 10:0.159711 11:0.19423 12:0.468495 
422.3587233626276 1:0.428775 4:0.188376 5:0.0179679 6:0.112957 7:0.281469 8:0.231027 9:0.513557 10:0.0864955 11:0.189342 12:0.290208 
512 1:0.224284 4:0.127493 5:0.0166958 6:0.137613 7:0.267449 8:0.425051 9:0.440605 10:0.270534 11:0.170308 12:0.358691 
512 1:0.23756 4:0.120697 5:0.0186039 6:0.154056 7:0.302402 8:0.435026 9:0.344603 10:0.0950088 11:0.105639 12:0.373517 
229.1605921587792 1:0.27728 4:0.735561 5:0.0174909 6:0.0306983 7:0.163402 8:0.151982 9:0.601038 10:0.170705 12:0.463079 
250.3071241448339 1:0.11744 4:0.558131 5:0.0171728 6:0.106896 7:0.32449 8:0.470187 9:0.327882 10:0.264055 11:0.12845 12:0.830777 
63.1122348287339 1:0.0152266 4:0.66691 5:0.0124026 6:0.0975401 7:0.1966 8:0.386555 9:0.183956 10:0.32563 11:0.105602 12:0.568919 
2.599375107035698 1:0.308149 4:0.0993719 5:0.00763237 6:0.149827 7:0.349041 8:0.167244 9:0.247725 10:0.268352 11:0.287188 12:0.493392 
17.4611184804063 1:0.421362 4:0.123232 5:0.0020671 6:0.416651 7:0.402741 8:0.0982906 9:0.296454 10:0.662393 11:0.537037 12:0.279676 
271.4466515976358 1:0.189529 4:0.114098 5:0.0151057 6:0.110855 7:0.251311 8:0.266897 9:0.467691 10:0.141999 11:0.184202 12:0.6384 
265.3296309824656 1:0.563019 4:0.087023 5:0.00461123 6:0.199343 7:0.326343 8:0.373892 9:0.440412 10:0.190887 11:0.26 12:0.418765 
512 1:0.296404 4:0.539316 5:0.0297345 6:0.160242 7:0.240626 8:0.264115 9:0.152723 10:0.222488 11:0.216459 12:0.35072 
512 1:0.157265 4:0.36321 5:0.0222611 6:0.150255 7:0.27384 8:0.297158 9:0.381248 10:0.133506 11:0.129888 12:0.383466 
23.68200351082369 1:0.316631 4:0.291756 5:0.0143107 6:0.239276 7:0.390566 8:0.406752 9:0.113246 10:0.124598 11:0.525295 12:0.265329 
351.8330268219981 1:0.0322789 4:0.578268 5:0.0174909 6:0.108745 7:0.264926 8:0.29896 9:0.367191 10:0.268631 11:0.065338 12:0.513626 
181.194627824209 1:0.303555 4:0.360683 5:0.0241692 6:0.203627 7:0.369632 8:0.190457 9:0.195898 10:0.0611199 11:0.267587 12:0.484633 
200.7919501149671 1:0.709391 4:0.273526 5:0.00524726 6:0.240186 7:0.215396 8:0.549072 9:0.52727 10:0.102785 11:0.2 12:0.263562 
103.4117797541491 1:0.574696 4:0.537084 5:0.0124026 6:0.188753 7:0.387132 8:0.389391 9:0.185526 10:0.174944 11:0.170203 12:0.482714 
11.81259221352141 1:0.296772 4:0.330088 5:0.0114486 6:0.126025 7:0.16992 8:0.415663 9:0.545278 10:0.175075 11:0.283886 12:0.505918 
411.3345516864487 1:0.0304992 4:0.954116 5:0.0329146 6:0.149046 7:0.398971 8:0.210687 9:0.144909 10:0.177481 11:0.172672 12:0.398527 
512 1:0.306852 4:0.29328 5:0.0154238 6:0.0488871 7:0.268758 8:0.241742 9:0.467068 10:0.116366 12:0.479465 
512 1:0.0939199 4:0.134836 5:0.0249642 6:0.0936612 7:0.257118 8:0.40245 9:0.387725 10:0.146909 11:0.0659668 12:0.491711 
16.6023625306129 1:0.0683014 4:0.757526 5:0.0170138 6:0.243623 7:0.31294 8:0.321678 9:0.59329 10:0.0903263 11:0.263636 12:0.622479 
512 1:0.360929 4:0.279117 5:0.0100175 6:0.192589 7:0.328798 8:0.351017 9:0.303099 10:0.168968 11:0.16439 12:0.660702 
61.98087731155243 1:0.00512655 4:0.218743 5:0.00397519 6:0.134675 7:0.139414 8:0.381215 9:0.233766 10:0.214088 11:0.416575 12:0.556545 
60.54958470956907 1:0.238804 4:0.27846 5:0.0116076 6:0.0963897 7:0.287951 8:0.476759 9:0.233899 11:0.189447 12:0.477618 
512 1:0.0678316 4:0.263459 5:0.020671 6:0.127237 7:0.277346 8:0.396016 9:0.240785 10:0.0784943 11:0.127279 12:0.525458 
256.4384861075066 1:0.0653798 4:0.704451 5:0.0136747 6:0.131065 7:0.374859 8:0.0927419 9:0.226674 10:0.3125 12:0.376024 
298.2460169023778 1:0.318402 4:0.414555 5:0.0174909 6:0.0173728 7:0.172701 8:0.429639 9:0.540835 10:0.0482565 11:0.0469489 12:0.494835 
397.6439682636988 1:0.287238 4:0.0675613 5:0.00556527 6:0.122524 7:0.234465 8:0.538362 9:0.417041 10:0.251951 11:0.147074 12:0.398807 
261.3093959731083 1:0.120604 4:0.299864 5:0.0278264 6:0.0957788 7:0.235563 8:0.335334 9:0.647057 10:0.132933 11:0.0646655 12:0.366692 
336.1734026106056 1:0.335558 4:0.0271083 5:0.00254412 6:0.127653 7:0.344463 8:0.529204 9:0.364359 10:0.160029 11:0.133451 12:0.578486 
42.81940602805913 1:0.0522221 4:0.537879 5:0.0143107 6:0.123245 7:0.299884 8:0.20334 9:0.195099 10:0.152259 11:0.0740668 12:0.454049 
52.482162511163 1:0.336591 4:0.0855254 5:0.0124026 6:0.107364 7:0.197841 8:0.310578 9:0.564614 10:0.0872093 11:0.169692 12:0.45622 
9.980188305644738 1:0.359186 4:0.213411 5:0.00556527 6:0.191714 7:0.287269 8:0.3389 9:0.457789 10:0.456778 11:0.296267 12:0.473159 
512 1:0.131364 4:0.692015 5:0.0421371 6:0.0907782 7:0.192841 8:0.329141 9:0.433802 10:0.16804 11:0.0980919 12:0.405299 
90.03606024978122 1:0.193065 4:0.602982 5:0.0114486 6:0.267143 7:0.29584 8:0.567123 9:0.179265 10:0.212329 11:0.413151 12:0.442772 
69.75274915138408 1:0.5761 4:0.994479 5:0.0284624 6:0.0512578 7:0.227512 8:0.380515 9:0.356176 10:0.213695 11:0.0693015 12:0.403734 
120.096519297759 1:0.0458427 4:0.701184 5:0.0138337 6:0.110563 7:0.0786951 8:0.27381 9:0.273131 10:0.102513 11:0.299206 12:0.236283 
137.256243887901 1:0.229898 4:0.56114 5:0.0143107 6:0.0999736 7:0.316712 8:0.141393 9:0.204788 10:0.0794057 11:0.309016 12:0.686996 
385.9725529401938 1:0.196872 4:0.351604 5:0.0125616 6:0.0714724 7:0.228463 8:0.20205 9:0.333504 10:0.11347 11:0.0551977 12:0.610947 
21.45596373195646 1:0.0154865 4:0.398274 5:0.0139927 6:0.187068 7:0.272455 8:0.257079 9:0.340006 10:0.230999 11:0.337109 12:0.598735 
7.913304500862195 1:0.0986017 4:0.0733741 5:0.00238512 6:0.0213574 7:0.420138 8:0.158499 9:0.203949 12:0.907415 
512 1:0.308437 4:0.724782 5:0.0238512 6:0.267325 7:0.298594 8:0.165335 9:0.366609 10:0.247604 11:0.301118 12:0.35448 
56.88566170726951 1:0.0354097 4:0.337215 5:0.00731436 6:0.0661978 7:0.320619 8:0.409739 9:0.242164 12:0.825278 
-235.8652530368497 1:0.104756 4:0.997956 5:0.0516775 6:0.192021 7:0.353904 8:0.211009 9:0.203591 10:0.237003 11:0.153721 12:0.176711 
-512 1:0.496852 4:0.392492 5:0.0281444 6:0.118371 7:0.259231 8:0.330752 9:0.19532 10:0.0857301 11:0.0556047 12:0.324114 
-88.05997466798182 1:0.0473453 4:1 5:0.0494514 6:0.0595639 7:0.169228 8:0.257737 9:0.683434 10:0.165422 11:0.0804696 12:0.480982 
-218.6872096696439 1:0.580171 4:0.259698 5:0.0230561 6:0.150191 7:0.254244 8:0.329946 9:0.39238 10:0.138972 11:0.247878 12:0.40994 
-512 1:0.151384 4:0.375831 5:0.0133567 6:0.0410816 7:0.29654 8:0.05081 9:0.588831 12:0.573483 
-512 1:0.0262905 4:0.312198 5:0.0504055 6:0.082922 7:0.220234 8:0.398383 9:0.442585 10:0.115061 11:0.087067 12:0.339141 
-512 1:0.57894 4:0.264353 5:0.0125616 6:0.185003 7:0.341617 8:0.152486 9:0.223213 10:0.128453 11:0.124972 12:0.477335 
-130.7159082537792 1:0.302338 4:0.631448 5:0.0221021 6:0.115176 7:0.352312 8:0.0518018 9:0.54355 10:0.17455 11:0.16982 12:0.386522 
-512 1:0.306597 4:0.461678 5:0.0182859 6:0.175753 7:0.283522 8:0.137268 9:0.400603 10:0.20557 11:0.1 12:0.432156 
-512 1:0.289611 4:0.267935 5:0.0154238 6:0.17252 7:0.243985 8:0.252747 9:0.407238 10:0.283883 11:0.138095 12:0.392805 
-54.73662537337783 1:0.541993 4:0.625941 5:0.0298935 6:0.307999 7:0.475792 8:0.380795 9:0.328349 10:0.384934 11:0.166446 12:0.250799 
-44.4156027622276 1:0.912822 4:0.479167 5:0.0359358 6:0.162416 7:0.343528 8:0.0973202 9:0.400996 10:0.136636 12:0.316163 
-234.6650392553111 1:0.240671 4:0.730696 5:0.0287804 6:0.111891 7:0.174936 8:0.092246 9:0.199764 10:0.310829 11:0.100802 12:0.46428 
-512 1:0.100538 4:0.232575 5:0.0284624 6:0.0729704 7:0.263991 8:0.27047 9:0.394225 10:0.0675087 11:0.0656794 12:0.714301 
-212.5745868122348 1:0.0185053 4:0.606262 5:0.020989 6:0.0634897 7:0.240104 8:0.366464 9:0.31776 11:0.286039 12:0.467947 
-130.8127052543358 1:0.540161 4:0.594655 5:0.0389569 6:0.241987 7:0.323078 8:0.306048 9:0.139383 10:0.09375 11:0.364839 12:0.2517 
-187.734757068263 1:0.578465 4:0.0528098 5:0.0020671 6:0.0624356 7:0.229052 8:0.705882 9:0.311903 11:0.144629 12:0.392475 
-512 1:0.051493 4:0.420411 5:0.0302115 6:0.0718928 7:0.272631 8:0.304636 9:0.391599 10:0.0855408 11:0.055482 12:0.551985 
-163.6665883395355 1:0.821985 4:0.204807 5:0.0152647 6:0.183525 7:0.301292 8:0.122601 9:0.227878 10:0.220327 11:0.214357 12:0.438876 
-512 1:0.162265 4:0.540576 5:0.0144697 6:0.10891 7:0.335215 8:0.202148 9:0.305701 10:0.151367 11:0.0736328 12:0.563453 
-48.53769800449442 1:0.645962 4:1 5:0.0496104 6:0.0371088 7:0.106921 8:0.220213 9:0.579553 10:0.0412234 11:0.0401064 12:0.530182 
-496.9064277367838 1:0.230322 4:0.121521 5:0.0297345 6:0.0759285 7:0.246545 8:0.421105 9:0.419279 10:0.103196 11:0.0836662 12:0.457666 
-512 1:0.369299 4:0.0786259 5:0.0131976 6:0.141134 7:0.312881 8:0.393707 9:0.505546 10:0.189517 11:0.135214 12:0.467889 
-3.525716444879861 1:0.552296 4:0.207055 5:0.0060423 6:0.577891 7:0.599608 8:0.243386 9:0.172066 10:0.546737 11:0.731393 12:0.202465 
-63.29403662364773 1:0.861034 4:0.613513 5:0.0263953 6:0.128066 7:0.301783 8:0.126683 9:0.297254 10:0.0474296 11:0.230722 12:0.444985 
-0.9951358181834554 1:0.044566 4:0.936146 5:0.0442042 6:0.015589 7:0.181448 8:0.46257 9:0.524835 10:0.0432961 11:0.0421229 12:0.4102 
-512 1:0.169422 4:0.156341 5:0.0283034 6:0.136979 7:0.363099 8:0.328181 9:0.259522 10:0.138228 11:0.100862 12:0.464129 
-512 1:0.0134484 4:0.757863 5:0.0230561 6:0.144494 7:0.274786 8:0.357513 9:0.233857 10:0.133851 11:0.130225 12:0.376294 
-406.2744769169989 1:0.0307295 4:0.738141 5:0.0302115 6:0.170557 7:0.36333 8:0.133205 9:0.363271 10:0.299228 11:0.0485199 12:0.271847 
-40.47705295352363 1:0.345472 4:0.793407 5:0.0508825 6:0.390867 7:0.511776 8:0.284185 9:0.221683 10:0.255354 11:0.465815 12:0.512793 
-512 1:0.311019 4:0.568251 5:0.0155828 6:0.133026 7:0.423478 8:0.460878 9:0.370918 10:0.221851 11:0.0719466 12:0.747242 
-512 1:0.277993 4:0.187182 5:0.0259183 6:0.153758 7:0.390145 8:0.319938 9:0.265165 10:0.224594 11:0.101971 12:0.461069 
-101.4473347758774 1:0.436031 4:0.260945 5:0.020194 6:0.3105 7:0.352708 8:0.448665 9:0.270641 10:0.424367 11:0.387064 12:0.517155 
-101.1471269966084 1:0.35716 4:0.383704 5:0.0240102 6:0.33565 7:0.499439 8:0.14557 9:0.211725 10:0.359705 11:0.286329 12:0.385475 
-69.07243772637774 1:0.575198 4:0.806998 5:0.020194 6:0.189938 7:0.272275 9:0.0900693 10:0.406184 11:0.316143 12:0.221059 
-206.6274409424195 1:0.803597 4:0.54943 5:0.0178089 6:0.101543 7:0.199743 8:0.390777 9:0.340836 10:0.250809 11:0.0610032 12:0.379063 
-33.48988983407739 1:0.343223 4:0.935735 5:0.0508825 6:0.108382 7:0.357666 8:0.301456 9:0.303745 10:0.26335 12:0.436238 
-193.2707399353235 1:0.693859 4:0.13891 5:0.0238512 6:0.0986422 7:0.152763 8:0.433281 9:0.449718 10:0.109498 11:0.165714 12:0.273176 
-1.475522461619861 1:0.836261 4:0.212793 5:0.041024 6:0.114458 7:0.16752 8:0.364268 9:0.415758 10:0.086135 11:0.125702 12:0.222826 
-358.0188973234641 1:0.121994 4:0.723316 5:0.0303705 6:0.175034 7:0.295531 8:0.173149 9:0.281501 10:0.243099 11:0.236512 12:0.378905 
-391.5096733051447 1:0.124357 4:0.174455 5:0.0283034 6:0.103892 7:0.17212 8:0.490575 9:0.317348 10:0.15377 11:0.174537 12:0.366462 
-404.9845646492673 1:0.107984 4:0.542399 5:0.0184449 6:0.139893 7:0.275453 8:0.212963 9:0.205754 10:0.119599 11:0.116358 12:0.706711 
-26.49911228886348 1:0.819408 4:0.257039 5:0.0308475 6:0.154853 7:0.282003 8:0.321429 9:0.258066 10:0.154725 11:0.133807 12:0.517648 
-321.8316564788265 1:0.274697 4:0.169875 5:0.0230561 6:0.192849 7:0.334522 8:0.435675 9:0.271456 10:0.137628 11:0.223165 12:0.635532 
-512 1:0.369465 4:0.111024 5:0.0125616 6:0.152544 7:0.265714 8:0.393349 9:0.496244 10:0.12886 11:0.179097 12:0.38322 
-286.9213618456619 1:0.414495 4:0.649217 5:0.0354587 6:0.249424 7:0.454757 8:0.233333 9:0.265222 10:0.149758 11:0.364251 12:0.451356 
-121.1284761312427 1:0.490742 4:1 5:0.0537446 6:0.0616829 7:0.116973 8:0.27112 9:0.51408 10:0.152259 11:0.148134 12:0.454818 
-469.6950883490672 1:0.343163 4:0.244273 5:0.0187629 6:0.120329 7:0.139096 8:0.356897 9:0.49687 10:0.213793 11:0.13 12:0.181026 
-512 1:0.112854 4:0.585087 5:0.0286214 6:0.0676586 7:0.13024 8:0.334591 9:0.278686 10:0.208782 11:0.040625 12:0.425889 
-512 1:0.197837 4:0.0594212 5:0.0187629 6:0.132825 7:0.310633 8:0.355733 9:0.438555 10:0.137778 11:0.194364 12:0.528041 
-512 4:0.543242 5:0.0149467 6:0.119269 7:0.165177 8:0.327947 9:0.333079 10:0.221008 11:0.358365 12:0.484255 
-7.547505042216491 1:0.505901 4:0.0609647 5:0.0241692 6:0.0515049 7:0.138342 8:0.464894 9:0.463049 10:0.0824468 11:0.0641702 12:0.387919 
-440.7698088993279 1:0.374241 4:0.404915 5:0.020194 6:0.0736695 7:0.139358 8:0.327878 9:0.655729 10:0.122756 11:0.0398099 12:0.338788 
-488.2358998273569 1:0.168458 4:0.282158 5:0.0271903 6:0.169213 7:0.259059 8:0.418182 9:0.390902 10:0.192149 11:0.166171 12:0.362859 
-512 1:0.103851 4:0.121648 5:0.0144697 6:0.0756717 7:0.268444 8:0.420732 9:0.349547 10:0.15752 11:0.08514 12:0.568145 
-188.7393378783766 1:0.52226 4:0.767841 5:0.0351407 6:0.0723301 7:0.308284 8:0.158986 9:0.212003 10:0.0446429 11:0.0434332 12:0.321032 
-116.7193697561351 1:0.520946 4:0.652864 5:0.0149467 6:0.159086 7:0.45123 8:0.236301 9:0.275208 10:0.176941 11:0.0860731 12:0.802763 
