svm_type c_svc
kernel_type rbf
gamma 1
nr_class 2
total_sv 139
rho -1.55864
label -1 1
probA -1.48716
probB -0.265266
nr_sv 80 59
SV
157.9432582582264 1:0.0129331 4:0.827596 5:0.0265543 6:0.125733 7:0.182506 8:0.395902 9:0.157817 10:0.127049 11:0.18541 12:0.196933 
512 1:0.109543 4:0.361191 5:0.0186039 6:0.164075 7:0.289617 8:0.388037 9:0.301963 10:0.0792434 11:0.308384 12:0.417178 
289.7266449326767 1:0.0713219 4:0.444582 5:0.0127206 6:0.178095 7:0.201753 8:0.251825 9:0.179074 10:0.212135 11:0.137591 12:0.416144 
53.49876318489795 1:0.133675 4:0.179376 5:0.00890444 6:0.184174 7:0.322422 8:0.182154 9:0.191809 10:0.491024 11:0.11943 12:0.462153 
312.0394944101149 1:0.472238 4:0.299378 5:0.0222611 6:0.288097 7:0.443519 8:0.196441 9:0.391389 10:0.0551601 11:0.160996 12:0.453832 
435.6959258221351 1:0.3441 4:0.132409 5:0.00365718 6:0.216653 7:0.260979 8:0.252285 9:0.423898 10:0.212523 11:0.275686 12:0.417505 
1.120723170042943 1:0.0277123 4:0.487313 5:0.0124026 6:0.228511 7:0.329869 8:0.282787 9:0.24393 10:0.238217 11:0.463525 12:0.985947 
101.7480111112617 1:0.445643 4:0.105133 5:0.00556527 6:0.117202 7:0.194343 8:0.306818 9:0.517307 10:0.153162 11:0.186265 12:0.305532 
512 1:0.0473685 4:0.465377 5:0.0174909 6:0.107144 7:0.411019 8:0.240922 9:0.29007 10:0.16236 11:0.157961 12:0.526889 
512 1:0.135529 4:0.304169 5:0.0243282 6:0.147905 7:0.3298 8:0.365563 9:0.400032 10:0.256623 11:0.149801 12:0.5284 
88.63493351928661 1:0.54117 4:0.453493 5:0.020353 6:0.098134 7:0.187344 8:0.121336 9:0.305833 10:0.181712 11:0.0883939 12:0.503635 
512 1:0.123704 4:0.468856 5:0.0154238 6:0.266475 7:0.287129 8:0.219745 9:0.243681 10:0.370223 11:0.360191 12:0.367799 
15.22120311326213 1:0.756285 4:0.146947 5:0.0041342 6:0.0503342 7:0.105861 8:0.435921 9:0.314725 11:0.204152 12:0.355404 
512 1:0.10303 4:0.129031 5:0.0166958 6:0.0957092 7:0.25028 8:0.343997 9:0.358787 10:0.193187 11:0.0626506 12:0.496204 
61.21196727194922 1:0.0260635 4:0.308472 5:0.0286214 6:0.0438986 7:0.220879 8:0.433962 9:0.570607 10:0.044311 11:0.0431103 12:0.288726 
206.752915855969 1:0.287753 4:0.273894 5:0.0108125 6:0.166283 7:0.266017 8:0.0913907 9:0.349433 10:0.256623 11:0.299603 12:0.379584 
32.93329666620823 1:0.0225009 4:0.345113 5:0.0136747 6:0.0738058 7:0.257051 8:0.0912698 9:0.475262 11:0.0498677 12:0.649005 
512 1:0.124257 4:0.170212 5:0.0186039 6:0.0988927 7:0.253869 8:0.353933 9:0.371185 10:0.170371 11:0.165755 12:0.522369 
200.558617344868 1:0.139943 4:0.436665 5:0.0135157 6:0.211989 7:0.331825 8:0.058277 9:0.389391 10:0.392736 11:0.25473 12:0.327953 
89.29796119266214 1:0.0406142 4:0.513664 5:0.0159008 6:0.0471883 7:0.278219 8:0.291878 9:0.32546 11:0.191371 12:0.444301 
76.7535828092706 1:0.0550094 4:0.0922415 5:0.00699634 6:0.0978819 7:0.178993 8:0.508065 9:0.398577 10:0.0543478 11:0.158626 12:0.251078 
133.3447929412622 1:0.145485 4:0.538135 5:0.0181269 6:0.423594 7:0.478905 8:0.268692 9:0.178205 10:0.422508 11:0.352336 12:0.367775 
67.43649382988198 1:0.136366 4:0.261697 5:0.00842741 6:0.0899694 7:0.219517 8:0.667742 9:0.647726 10:0.125 11:0.121613 12:0.314006 
512 1:0.101932 4:0.137574 5:0.0181269 6:0.108145 7:0.361666 8:0.295353 9:0.273626 10:0.15797 11:0.0768447 12:0.583984 
512 1:0.11274 4:0.27525 5:0.0130386 6:0.309363 7:0.343056 8:0.267738 9:0.329939 10:0.12888 11:0.292572 12:0.274955 
512 1:0.0974888 4:0.551534 5:0.0190809 6:0.116398 7:0.464199 8:0.26176 9:0.31776 10:0.0588012 11:0.0572079 12:0.600844 
197.6733550859057 1:0.0064888 4:0.635025 5:0.0139927 6:0.0825517 7:0.10663 8:0.245261 9:0.422574 10:0.183649 11:0.268009 12:0.523033 
73.14847125994756 1:0.293887 4:0.366559 5:0.00651932 6:0.14048 7:0.241901 8:0.397695 9:0.355265 10:0.335014 11:0.325937 12:0.482714 
512 1:0.305142 4:0.0472 5:0.0152647 6:0.194509 7:0.310699 8:0.383198 9:0.23598 10:0.184459 11:0.212694 12:0.349145 
189.6813209890621 1:0.00993461 4:0.66109 5:0.020512 6:0.436492 7:0.462913 8:0.233503 9:0.422421 10:0.327834 11:0.382741 12:0.394914 
77.35487809348744 1:0.241623 4:0.301449 5:0.0127206 6:0.190627 7:0.379426 8:0.128571 9:0.397047 10:0.192547 11:0.280994 12:0.589522 
29.69222232744877 1:0.384897 4:0.82188 5:0.0257593 6:0.666802 7:0.695275 8:0.173658 9:0.0981321 10:0.520134 11:0.695805 12:0.405172 
39.21137506792036 1:0.0618276 4:0.166343 5:0.0122436 6:0.185902 7:0.255529 8:0.298056 9:0.341236 10:0.334773 11:0.407127 12:0.392734 
107.993392763269 1:0.187104 4:0.151305 5:0.00492924 6:0.142752 7:0.333516 8:0.597638 9:0.270744 10:0.122047 11:0.0593701 12:0.421419 
47.22413509205802 1:0.184408 4:0.20646 5:0.0128796 6:0.159395 7:0.196737 8:0.379442 9:0.244659 10:0.196701 11:0.0956853 12:0.263715 
6.470175725744185 1:0.275205 4:0.216421 5:0.00938146 6:0.185115 7:0.241878 8:0.208082 9:0.545972 10:0.186972 11:0.227382 12:0.386821 
305.2035480389518 1:0.187519 4:0.56037 5:0.0182859 6:0.123311 7:0.311424 8:0.221865 9:0.584127 10:0.062299 11:0.181833 12:0.484017 
10.23669898046345 1:0.409774 4:0.991411 5:0.0181269 6:0.399078 7:0.534356 8:0.0988539 9:0.353057 10:0.666189 12:0.366692 
59.7190386069373 1:0.16068 4:0.440145 5:0.00954047 6:0.116676 7:0.231409 8:0.165072 9:0.244117 10:0.0927033 11:0.0901914 12:0.787027 
271.9567695981124 1:0.124049 4:0.767692 5:0.0224201 6:0.15046 7:0.497792 8:0.248201 9:0.27913 10:0.139388 12:0.422932 
109.0417687349978 1:0.105693 4:0.033474 5:0.000954047 6:0.111208 7:0.287732 8:0.605263 9:0.45737 10:0.247209 11:0.0601276 12:0.291315 
512 1:0.0931409 4:0.36321 5:0.0222611 6:0.150255 7:0.27384 8:0.297158 9:0.381248 10:0.133506 11:0.129888 12:0.383466 
97.98960137473227 1:0.0755434 4:0.154214 5:0.0060423 6:0.147612 7:0.104175 8:0.456349 9:0.42473 10:0.358796 11:0.149603 12:0.41727 
0.6125794469549258 4:0.0450983 5:0.00111305 6:0.0128854 7:0.110595 8:0.701479 9:0.287703 11:0.0696858 12:0.120094 
512 1:0.11213 4:0.143411 5:0.019399 6:0.130255 7:0.237647 8:0.36979 9:0.455242 10:0.153831 11:0.11973 12:0.471111 
73.42880348027316 1:0.11599 4:0.300533 5:0.00954047 6:0.217174 7:0.266714 8:0.22623 9:0.439641 10:0.127049 11:0.18541 12:0.276686 
30.80241888582771 1:0.364202 4:0.604333 5:0.0151057 6:0.291602 7:0.338678 8:0.433054 9:0.409506 10:0.405335 11:0.236611 12:0.32164 
37.04316175560088 1:0.445776 4:0.467912 5:0.0144697 6:0.153362 7:0.213033 8:0.233503 9:0.260819 10:0.327834 11:0.255161 12:0.641851 
512 1:0.311406 4:0.0780341 5:0.0119256 6:0.0923198 7:0.232397 8:0.369907 9:0.481945 10:0.124643 11:0.161687 12:0.443542 
512 1:0.1649 4:0.50221 5:0.0141517 6:0.155197 7:0.242381 8:0.128015 9:0.288882 10:0.143785 11:0.279777 12:0.554904 
77.61920934751137 1:0.0580149 4:0.303931 5:0.0157418 6:0.0921729 7:0.28077 8:0.596037 9:0.261114 10:0.11814 11:0.191565 12:0.739138 
135.8028728754017 1:0.653784 4:0.273526 5:0.00524726 6:0.240186 7:0.215396 8:0.549072 9:0.52727 10:0.102785 11:0.2 12:0.263562 
368.2170414219244 1:0.429764 4:0.537084 5:0.0124026 6:0.188753 7:0.387132 8:0.389391 9:0.185526 10:0.174944 11:0.170203 12:0.482714 
287.3306691852548 1:0.240516 4:0.330088 5:0.0114486 6:0.126025 7:0.16992 8:0.415663 9:0.545278 10:0.175075 11:0.283886 12:0.505918 
173.5420452816446 1:0.179651 4:0.0570594 5:0.0116076 6:0.0803624 7:0.176293 8:0.378186 9:0.451526 10:0.138052 11:0.103316 12:0.375465 
152.0832557581988 1:0.0224199 4:0.954116 5:0.0329146 6:0.149046 7:0.398971 8:0.210687 9:0.144909 10:0.177481 11:0.172672 12:0.398527 
26.65304515157154 1:0.694226 4:0.397468 5:0.0106535 6:0.17595 7:0.320263 8:0.334951 9:0.266655 10:0.225728 11:0.0732039 12:0.293842 
102.3959688553796 1:0.214539 4:0.445293 5:0.0190809 6:0.154056 7:0.223964 8:0.211656 9:0.344931 11:0.277546 12:0.721581 
169.190855628856 1:0.0298895 4:0.544523 5:0.0120846 6:0.098134 7:0.270568 9:0.463163 10:0.181925 11:0.176995 12:0.537871 
58.74022060457726 1:0.19428 4:0.212163 5:0.0127206 6:0.368218 7:0.631668 8:0.242744 9:0.104333 10:0.204485 11:0.232102 12:0.518397 
86.78955482201205 1:0.144867 4:0.757526 5:0.0170138 6:0.243623 7:0.31294 8:0.321678 9:0.59329 10:0.0903263 11:0.263636 12:0.622479 
448.6544524276683 1:0.439245 4:0.237431 5:0.0187629 6:0.102979 7:0.261956 8:0.254527 9:0.354269 10:0.181925 11:0.15171 12:0.278043 
300.9570404333124 1:0.109339 4:0.42227 5:0.0162188 6:0.0381112 7:0.198295 8:0.42418 9:0.387451 11:0.0515027 12:0.46831 
163.8810006209498 1:0.0441583 4:0.118026 5:0.0233741 6:0.0898309 7:0.242792 8:0.283329 9:0.49806 10:0.1379 11:0.134164 12:0.398698 
3.893948575256748 1:0.112477 4:0.294031 5:0.0108125 6:0.227843 7:0.319254 8:0.0980114 9:0.53972 10:0.495384 11:0.267756 12:0.41705 
164.3838549495345 1:0.0229962 4:0.0607723 5:0.0104945 6:0.100664 7:0.26063 8:0.475328 9:0.288189 10:0.124159 11:0.0603973 12:0.319868 
58.00837813453123 1:0.357427 4:0.0271083 5:0.00254412 6:0.127653 7:0.344463 8:0.529204 9:0.364359 10:0.160029 11:0.133451 12:0.578486 
323.7308843746183 1:0.0228154 4:0.10627 5:0.00349817 6:0.290099 7:0.383715 8:0.159476 9:0.323119 10:0.238829 11:0.232357 12:0.570176 
512 4:0.207998 5:0.0340277 6:0.0662303 7:0.230188 8:0.338567 9:0.432317 10:0.101407 11:0.123324 12:0.384448 
166.9258073095656 1:0.0483806 4:0.314732 5:0.0114486 6:0.250498 7:0.305521 8:0.198276 9:0.354158 10:0.334052 11:0.270833 12:0.215881 
95.9535622425642 1:0.645609 4:0.388472 5:0.020512 6:0.382964 7:0.530408 8:0.275449 9:0.217757 10:0.116018 11:0.300998 12:0.467329 
512 1:0.105984 4:0.692015 5:0.0421371 6:0.0907782 7:0.192841 8:0.329141 9:0.433802 10:0.16804 11:0.0980919 12:0.405299 
72.40225118973703 1:0.0776247 4:0.401865 5:0.00508825 6:0.0834726 7:0.345448 8:0.552 9:0.275557 11:0.3016 12:0.29181 
187.2781497910463 1:0.115029 4:0.155403 5:0.0130386 6:0.137112 7:0.287245 8:0.327947 9:0.28466 10:0.196451 11:0.071673 12:0.41122 
61.87488909238035 1:0.260829 4:0.56114 5:0.0143107 6:0.0999736 7:0.316712 8:0.141393 9:0.204788 10:0.0794057 11:0.309016 12:0.686996 
357.8250378763424 1:0.0300089 4:0.182292 5:0.0263953 6:0.0438912 7:0.117794 8:0.293454 9:0.273692 10:0.0716531 11:0.0418269 12:0.326289 
174.358434908667 1:0.2513 4:0.209923 5:0.00874543 6:0.236001 7:0.367462 8:0.259398 9:0.233237 10:0.388471 11:0.236216 12:0.390216 
512 1:0.0798712 4:0.0979816 5:0.0186039 6:0.166235 7:0.308522 8:0.287005 9:0.331579 10:0.255666 11:0.216294 12:0.483878 
512 1:0.217944 4:0.724782 5:0.0238512 6:0.267325 7:0.298594 8:0.165335 9:0.366609 10:0.247604 11:0.301118 12:0.35448 
63.60373623488881 1:0.493306 4:0.00549493 5:0.00349817 6:0.0920378 7:0.234473 8:0.588181 9:0.394106 10:0.0999284 11:0.129628 12:0.27226 
-42.26609403646799 1:0.105017 4:0.355232 5:0.0287804 6:0.141411 7:0.210988 8:0.293137 9:0.406895 10:0.227941 11:0.221765 12:0.37715 
-512 1:0.183216 4:0.445401 5:0.0127206 6:0.152931 7:0.425315 8:0.441499 9:0.214377 10:0.141682 11:0.206764 12:0.559779 
-183.8918693250284 1:0.21182 4:0.847537 5:0.0387979 6:0.28932 7:0.367462 8:0.198733 9:0.101972 10:0.3125 11:0.217166 12:0.343461 
-512 1:0.305577 4:0.0902456 5:0.0184449 6:0.113939 7:0.23348 8:0.295345 9:0.49116 10:0.134765 11:0.16137 12:0.444702 
-137.4839743615165 1:0.0404502 4:0.623883 5:0.0290984 6:0.0472948 7:0.119232 8:0.545763 9:0.444772 10:0.0875706 11:0.170395 12:0.242552 
-122.9396041831802 1:0.0553836 4:0.731668 5:0.0492924 6:0.229877 7:0.367102 8:0.243529 9:0.389416 10:0.42549 11:0.20698 12:0.411428 
-512 1:0.0947924 4:0.10817 5:0.0227381 6:0.119228 7:0.199555 8:0.446313 9:0.41967 10:0.180466 11:0.0780336 12:0.325998 
-512 1:0.114228 4:0.229908 5:0.0186039 6:0.196664 7:0.28331 8:0.203473 9:0.395523 10:0.126966 11:0.247051 12:0.436442 
-48.55887403082115 1:0.103859 4:0.766483 5:0.0325966 6:0.172868 7:0.219132 8:0.427509 9:0.30131 10:0.240087 11:0.327014 12:0.225399 
-121.4334252871639 1:0.328844 4:0.779419 5:0.00985848 6:0.0855168 7:0.303555 9:0.439641 10:0.158811 11:0.309016 12:0.386582 
-204.8851392931909 1:0.21721 4:0.143019 5:0.0162188 6:0.125242 7:0.239271 8:0.61898 9:0.637311 10:0.0182956 11:0.249197 12:0.415641 
-66.23219397322629 1:0.116075 4:0.236623 5:0.0283034 6:0.17413 7:0.34642 8:0.30735 9:0.378339 10:0.155345 11:0.167929 12:0.473312 
-512 1:0.0692154 4:0.420976 5:0.0217841 6:0.149198 7:0.274989 8:0.105397 9:0.320062 10:0.236762 11:0.153564 12:0.602512 
-512 1:0.130543 4:0.526073 5:0.0233741 6:0.115709 7:0.220744 8:0.204384 9:0.399942 10:0.183649 11:0.223341 12:0.454841 
-512 1:0.159506 4:0.653408 5:0.0276674 6:0.0954318 7:0.180359 8:0.257463 9:0.159998 10:0.096393 11:0.140672 12:0.360639 
-512 1:0.0373178 4:0.228065 5:0.0243282 6:0.153262 7:0.274088 8:0.206587 9:0.398858 10:0.232036 11:0.206936 12:0.589245 
-143.8858941988104 1:0.0564921 4:0.471122 5:0.0387979 6:0.0852239 7:0.168801 8:0.332584 9:0.460973 10:0.199229 11:0.145373 12:0.603206 
-512 1:0.0935367 4:0.13834 5:0.0248052 6:0.168033 7:0.335728 8:0.363267 9:0.314725 10:0.268126 11:0.0907341 12:0.420917 
-266.937527730406 1:0.0827606 4:0.751544 5:0.0214661 6:0.34599 7:0.522587 8:0.253676 9:0.426402 10:0.142463 11:0.138603 12:0.171266 
-512 1:0.186586 4:0.308375 5:0.0170138 6:0.106624 7:0.30745 8:0.428367 9:0.334813 10:0.111032 11:0.180038 12:0.395919 
-341.7479355928365 1:0.117309 4:0.244394 5:0.0267133 6:0.248089 7:0.346473 8:0.268744 9:0.239623 10:0.377313 11:0.348734 12:0.405648 
-102.3772534770573 4:0.983473 5:0.0472253 6:0.045997 7:0.162843 8:0.341209 9:0.452717 10:0.127747 11:0.0828571 12:0.515699 
-128.1776270812741 1:0.099563 4:0.612132 5:0.0233741 6:0.230554 7:0.395258 8:0.332645 9:0.28566 10:0.0533747 11:0.415427 12:0.51511 
-142.1735240079546 1:0.378721 4:0.491137 5:0.0139927 6:0.255819 7:0.144459 8:0.379817 9:0.530709 10:0.355505 11:0.415046 12:0.545186 
-512 1:0.0186707 4:0.357419 5:0.0298935 6:0.141445 7:0.189413 8:0.284041 9:0.308655 10:0.29449 11:0.262635 12:0.305891 
-4.685101060139993 1:0.447176 4:1 5:0.0504055 6:0.0876637 7:0.218107 8:0.541885 9:0.529975 10:0.121728 11:0.236859 12:0.649221 
-512 1:0.387767 4:0.0740764 5:0.0116076 6:0.121968 7:0.24311 8:0.397799 9:0.43045 10:0.203092 11:0.197589 12:0.443283 
-512 1:0.0788301 4:0.156341 5:0.0283034 6:0.136979 7:0.363099 8:0.328181 9:0.259522 10:0.138228 11:0.100862 12:0.464129 
-512 1:0.127207 4:0.440769 5:0.0186039 6:0.191101 7:0.180697 8:0.257783 9:0.49326 10:0.14477 11:0.234745 12:0.361497 
-512 1:0.169338 4:0.112438 5:0.0112896 6:0.14154 7:0.248032 8:0.276147 9:0.316491 10:0.124066 11:0.120704 12:0.434634 
-160.4261750616578 1:0.416152 4:0.117708 5:0.0302115 6:0.263319 7:0.360466 8:0.204661 9:0.23703 10:0.205244 11:0.335466 12:0.465339 
-512 1:0.671714 4:0.255091 5:0.0178089 6:0.216759 7:0.332022 8:0.313636 9:0.317233 10:0.176136 11:0.171364 12:0.35668 
-512 1:0.141161 4:0.279556 5:0.0310065 6:0.0936983 7:0.213559 8:0.43001 9:0.363683 10:0.167186 11:0.0722915 12:0.483103 
-204.4480752494451 1:0.0117126 4:0.673057 5:0.0146287 6:0.150731 7:0.371872 8:0.165865 9:0.291352 11:0.271875 12:0.652155 
-512 1:0.267063 4:0.299174 5:0.0165368 6:0.246098 7:0.343416 8:0.164442 9:0.370536 10:0.14776 11:0.215634 12:0.385256 
-369.3928050086916 1:0.150162 4:0.693638 5:0.0178089 6:0.213357 7:0.485395 8:0.281633 9:0.281794 10:0.237245 12:0.583612 
-56.68149881629285 1:0.456897 4:0.423132 5:0.0106535 6:0.201596 7:0.187421 8:0.356405 9:0.443523 10:0.240186 11:0.31157 12:0.293491 
-512 1:0.166597 4:0.519752 5:0.0103355 6:0.0727487 7:0.361475 8:0.270235 9:0.518539 11:0.0984334 12:0.558852 
-42.04724568006543 1:0.0629754 4:0.473537 5:0.0228971 6:0.440767 7:0.545318 8:0.0751634 9:0.0947805 10:0.253268 11:0.32854 12:0.37048 
-151.7466536940238 1:0.0503501 4:0.526191 5:0.0370488 6:0.0209569 7:0.21734 8:0.259009 9:0.328444 11:0.0283033 12:0.511349 
-138.7304775640416 1:0.633053 4:0.56316 5:0.0219431 6:0.103534 7:0.446067 8:0.139676 9:0.279269 10:0.156883 11:0.152632 12:0.642516 
-10.9446564960401 1:0.246677 4:0.589803 5:0.0271903 6:0.183366 7:0.45185 8:0.0788571 9:0.231897 10:0.221429 11:0.172343 12:0.571716 
-104.9842197050637 1:0.0301065 4:0.258144 5:0.0392749 6:0.0563018 7:0.197004 8:0.326613 9:0.311509 10:0.0543478 11:0.0793128 12:0.43916 
-512 1:0.250275 4:0.44419 5:0.020194 6:0.250289 7:0.406743 8:0.319444 9:0.235232 10:0.179398 11:0.349074 12:0.324039 
-512 1:0.103397 4:0.611659 5:0.0227381 6:0.147963 7:0.226694 8:0.146393 9:0.375198 10:0.219236 11:0.213296 12:0.386357 
-512 1:0.104972 4:0.0557231 5:0.0106535 6:0.138375 7:0.318672 8:0.372049 9:0.303972 10:0.237176 11:0.153833 12:0.525309 
-152.3331994298768 1:0.0121971 4:0.587635 5:0.0141517 6:0.0151166 7:0.479881 8:0.374187 9:0.342847 10:0.0840564 12:0.683114 
-141.6956249014816 1:0.360126 4:0.255889 5:0.0192399 6:0.20642 7:0.270568 8:0.340141 9:0.467647 10:0.21831 11:0.265493 12:0.260387 
-6.180894279997249 1:0.0940078 4:0.598275 5:0.0860232 6:0.105543 7:0.178734 8:0.178097 9:0.977124 10:0.114307 11:0.180715 12:0.503968 
-512 1:0.179445 4:0.115978 5:0.0114486 6:0.189265 7:0.323191 8:0.205803 9:0.342847 10:0.315211 11:0.224892 12:0.351977 
-492.6329271145001 1:0.0563642 4:0.213397 5:0.0376848 6:0.0359775 7:0.231917 8:0.397393 9:0.415769 10:0.011746 11:0.0914216 12:0.500433 
-86.2931411940592 1:0.2864 4:0.0879677 5:0.0316426 6:0.102735 7:0.184362 8:0.412414 9:0.297805 10:0.148467 11:0.104 12:0.476989 
-512 1:0.0507259 4:0.0800231 5:0.0133567 6:0.0960768 7:0.184431 8:0.440858 9:0.376747 10:0.114269 11:0.0741153 12:0.251545 
-13.69580823115866 1:0.0882891 4:0.576809 5:0.0362538 6:0.410471 7:0.443001 8:0.17395 9:0.0662444 10:0.293067 11:0.601933 12:0.235182 
-103.8920735085488 1:0.0921399 4:0.669881 5:0.019399 6:0.467275 7:0.455532 8:0.125 9:0.45439 10:0.561594 11:0.614674 12:0.428374 
-512 1:0.0380334 4:0.184068 5:0.0248052 6:0.182911 7:0.380389 8:0.23283 9:0.288418 10:0.123065 11:0.149663 12:0.544591 
-90.8855236431824 1:0.142799 4:0.572566 5:0.0227381 6:0.572751 7:0.512644 9:0.147034 10:0.410596 11:0.39947 12:0.315127 
-258.6194442783132 1:0.228369 4:0.424267 5:0.0252822 6:0.358464 7:0.312621 8:0.244464 9:0.359068 10:0.274579 11:0.367316 12:0.498525 
-143.1919863395516 1:0.411277 4:0.0609647 5:0.0241692 6:0.0515049 7:0.138342 8:0.464894 9:0.463049 10:0.0824468 11:0.0641702 12:0.387919 
